3340 100
， -0.45405123 0.38047898 0.20009963 0.02718968 -0.4420527 -0.31438994 0.25218618 1.0894539 0.1817228 0.1321317 -0.34426966 -0.6164066 -0.37292072 0.04789835 -0.108781025 -0.17165558 -0.13454536 -0.0837287 -0.14608346 -0.5949138 0.22798029 0.023452923 0.45826185 0.31862962 0.16742556 0.18660499 0.05828761 0.03932219 -0.47670576 0.3318301 -0.09030268 0.036517303 0.32174802 -0.23436543 -0.18632843 0.4725577 -0.14460157 -0.4753709 -0.27742612 -0.3445629 -0.11208731 -0.22229543 -0.5319184 0.0023859749 0.43952215 0.24684611 -0.09506607 0.2664335 0.12559663 0.2278782 0.31096023 -0.08017976 -0.19613208 0.029276503 -0.22679102 -0.24463962 0.59063673 -0.43570742 -0.345454 0.30095208 -0.06466848 -0.022736156 -0.03720814 -0.015144205 -0.08459307 0.112077996 0.20997232 0.41008842 -0.86176413 0.32661554 0.5367397 0.17478886 0.3450566 -0.28608942 0.20255084 0.30834106 0.24263181 -0.24419025 -0.11915287 0.07992132 -0.006423559 -0.029365238 -0.13294986 -0.005361736 0.25439504 -0.013587945 0.54207104 0.41281527 0.34113115 0.0041150902 0.663368 0.09948052 -0.19797297 -0.2469393 0.31089443 0.13959982 0.0752537 -0.12732951 0.025441382 0.61803824
的 -0.32149482 0.18172053 0.3780953 0.20290272 -0.42050055 -0.36247796 -0.14010741 0.6953708 0.16486092 0.55337876 -0.38839427 -0.3993638 -0.06662909 -0.112726346 0.89727384 0.10826878 0.2097263 0.15930632 -0.4691197 0.30945888 0.1869607 -0.073121704 -0.060876627 -0.3586636 -0.1751289 0.39501613 -0.30135405 0.0912124 -0.67042524 0.9193893 0.044959255 0.39365584 0.8354592 -0.48866728 -0.3776175 0.2582379 0.10947417 -0.16505675 -0.5905642 0.27339965 0.06221523 -0.039967943 -0.29858294 -0.19877891 0.4456904 0.20533776 0.86434233 -0.05916104 0.24945077 0.2699178 0.6146824 0.042498503 -0.33546406 -0.42497945 0.21851568 0.48318338 0.47503582 0.19655961 0.2795808 0.64964086 -0.32368684 -0.06482435 -0.3205716 0.57926965 -0.39915493 -0.14074516 -0.10684059 0.0780799 -0.3981257 0.667588 -0.18207364 -0.5662493 0.6296758 0.11861635 0.1968074 0.29258236 0.3549139 -0.60934657 0.22393048 0.30226097 -0.22089496 0.7303069 0.29364708 0.12250738 0.52002734 -0.06835187 0.45243526 0.6890265 0.8933418 -0.044338915 0.52904683 -0.49510247 0.36674923 -0.52818304 -0.09620098 0.5466909 0.33996364 0.22951226 0.060249783 0.009996751
。 -0.57540905 0.7899289 0.42954278 -0.14545155 -0.611161 -0.3822481 0.064888045 1.4882885 0.010985915 0.42962414 -0.46549296 -0.08534565 -0.39020258 -0.3781113 0.570671 -0.5458751 0.08926826 -0.17055455 -0.6143323 0.10479988 -0.09040178 -0.17855068 0.4938107 0.1893745 -0.070023954 0.15703514 0.3585829 0.14871295 -0.9596431 1.1332301 -0.0824968 0.015600157 0.26553425 -0.6561978 -0.0022556584 0.020744206 0.19230957 0.09350455 -0.5496937 0.33858678 -0.3923358 0.03818832 -0.58070266 -0.08104784 0.24883743 -0.092039466 0.9335349 0.6188746 -0.30964473 0.2894017 0.63055974 0.07143369 -0.58424354 -0.5587885 -0.2509377 0.4036916 0.505573 -0.12832092 -0.025237542 0.30194795 -0.19525184 -0.16508456 -0.20657434 0.6815473 -0.055275373 -0.1340592 0.34390023 -0.018437967 -0.41067863 0.31833312 0.18034771 -0.2761056 0.26536348 -0.23696934 -0.034922358 0.4617252 0.46601588 -0.2700929 0.205517 0.5004496 0.013624098 -0.017493024 0.78255373 -0.64862555 0.3077395 -0.37201637 0.3481625 0.2975135 0.7728961 0.31615078 0.07673583 -0.4993622 0.35039172 -0.74665904 0.021593407 0.454116 0.46001157 -0.027412357 0.050110642 -0.3196139
了 -0.7094179 0.14122304 -0.13794565 -0.27277622 -0.023378884 -0.59624714 -0.010070266 0.6515621 0.35610032 0.14493255 -0.3285406 0.11365626 -0.34715256 -0.11406535 0.38883772 0.04839992 -0.10678876 -0.38478515 -0.23507455 -0.21885185 0.38106656 -0.17515734 0.6371331 0.09818752 0.16539758 0.31047985 0.10476638 0.21773401 -0.6510222 0.42576012 0.32440525 0.013328555 0.13016357 -0.14192642 0.016531486 0.41015273 -0.20212457 -0.03129054 -0.5715328 -0.19552884 -0.22155541 -0.32366294 -0.25671673 -0.14971897 0.1466786 -0.08084472 -0.360064 0.20764776 0.11625139 0.23410402 0.44225255 -0.11255627 -0.2851962 -0.4937046 -0.41774952 0.007460065 0.5519341 0.11382326 -0.54086024 0.49530444 0.12282901 0.19507478 -0.19742578 -0.19242643 -0.030845774 -0.26857042 0.19941945 0.29525825 -0.5521351 0.24022812 0.2704839 0.21905985 0.23967212 -0.037056588 0.36921054 0.0007447426 0.055003677 -0.15420783 -0.40809098 0.20445697 0.3372376 0.38812593 -0.048738208 -0.051116038 0.39985913 0.18628322 0.3526757 0.19366007 0.31884307 -0.45204228 0.76297987 -0.14373003 -0.2407044 -0.429982 0.36668408 0.36620042 0.44909042 -0.26151094 -0.22989875 -0.009632329
！ -0.102033965 0.11041875 -0.09064761 0.40711105 -0.38774225 -0.08250544 0.3474914 0.8397161 -0.35603443 -0.31957778 -0.5089776 -0.9869118 -0.8458238 0.46545961 -0.29262358 0.024078546 0.14929771 0.3374983 0.5155691 -1.3720572 0.19159925 -0.15220821 0.666717 0.37926412 0.5078921 -0.012734514 -0.21180153 0.16977307 -0.19429494 0.17242171 0.3352851 0.10977961 0.70586216 -0.099747956 -0.10953493 1.3963606 -0.59069777 -0.63720727 -0.5138165 -0.5758688 0.41500145 -1.033036 -0.55670446 -0.0005941203 0.7699911 0.713267 -1.1521363 0.36736998 0.25689405 -0.43360382 0.5257207 0.08089508 -0.3316307 0.0978739 -0.6340165 -0.8417485 0.51115614 -0.8742797 -0.46309087 0.42753628 -0.20602567 0.112773106 0.39713252 -0.40847474 -0.11427484 0.054317217 0.29919094 0.7373491 -1.2927638 0.23622145 0.18922621 0.52511334 0.16613935 -0.020794969 0.60144377 0.24430606 0.26114836 -0.036690015 -0.2648459 0.038675565 0.051004995 -0.3561395 -0.46497825 0.49336907 0.087380365 -0.15167837 0.9653994 0.28878543 0.03150913 -0.415512 0.73925376 0.669961 -0.83850795 -0.08301143 0.19433773 -0.19845425 -0.007462241 -0.34408936 0.26817423 1.187583
： -0.27785295 0.71418506 -0.09673231 -0.71493256 -0.03880629 -1.050611 0.3597265 1.2557516 -0.66878575 -1.3548352 -0.75953627 -0.8363059 -0.40641463 0.3691902 -0.61214083 -0.86544913 0.65607077 0.5960072 0.5402522 -1.2136855 -0.4371858 -0.06395384 1.5638034 0.6286537 0.22778642 0.5139526 -0.35255328 0.21483496 -0.5789495 0.022511939 0.33050904 -1.0194014 0.46474555 -0.19689578 0.23350817 0.65520495 -0.7411327 0.03524279 -1.0155556 -0.043000836 -0.33592016 -0.5983033 -0.8047484 0.026777498 -0.08090911 -0.074602395 -0.69108796 0.5556729 0.17241113 -0.7351237 0.21263401 -0.6430136 -0.014091162 0.52947205 -0.7870141 -1.2433702 0.9077402 -1.3314027 -0.93176955 -0.032174792 0.20635772 -0.14101905 0.8575274 -0.89101505 0.09530818 1.4013271 -0.030923918 0.7090356 -1.7507758 -0.32327747 1.2701333 0.17953911 0.29121438 0.034549583 -0.12186587 0.82299477 -0.641514 0.7190861 -0.7619392 0.07900725 0.026115762 -0.13541815 -0.6311864 -0.40922272 -0.11584235 -0.19426465 0.73485184 0.5216094 -1.0555285 -0.5605546 1.6940093 0.613984 -0.61005735 0.20078395 0.32866424 -0.49475068 -0.7466105 -0.54855025 0.12501627 0.47450668
？ 0.38780603 0.23051263 0.7816628 0.31287268 -0.42196748 -0.84876543 0.3900398 0.584454 -0.76583815 -1.170374 -0.43045232 -1.6142224 -0.075755894 0.6674961 0.004047704 0.08158051 0.68740535 0.8504537 0.7575765 -2.4180055 -0.08045429 -0.03812418 0.7284825 0.58757347 1.1330633 0.44659558 -0.6062683 0.4942408 -0.19236085 0.08556345 1.0233755 0.52873987 0.7924527 0.49292266 0.27918425 2.037545 -1.2900343 -0.6148547 -0.954257 -1.7236784 0.6561416 -1.8758684 -0.12016234 0.1942494 0.4623298 1.2115921 -1.7500368 -0.2547191 0.21649384 -0.8025309 0.70274353 -0.38304505 -0.74004585 -0.34502643 -1.9986843 -0.90240765 0.71338105 -0.768432 -0.68712586 -0.15570319 -1.2583905 -0.4613666 1.1814239 -1.0127207 -0.42011392 0.5047906 0.5549288 0.16353995 -2.1768188 -0.033412453 -0.5641832 0.27341303 -0.24215218 1.2566953 0.6974308 0.084402084 0.073410854 0.004374596 -0.8776839 0.33174056 0.44357607 -0.3810943 -0.34933767 0.9299143 -0.22235873 0.29016703 1.2502116 -0.6568079 -1.1433233 -0.35133496 0.048933104 0.64596057 -0.9573522 0.3075328 -0.17464535 -0.5757582 0.78536344 -0.8423915 0.07951721 1.2309245
是 -0.061410557 0.09739296 0.13214412 0.433588 -0.39067727 -0.55352086 -0.00030989345 0.4863125 -0.46344605 -0.45860654 -0.36794838 -0.7581118 -0.05313877 0.2306888 0.49123046 -0.13109215 0.6310777 0.4450163 0.20303757 -0.63735443 -0.1117549 -0.054665517 0.2352043 -0.12875512 -0.060516696 0.28040212 -0.7891165 0.32398072 -0.44962078 0.29743922 0.26759726 0.17789675 0.9368825 -0.17377381 -0.26679677 0.6268032 -0.40422678 -0.21947059 -0.5373796 -0.0995839 0.17159523 -0.40718415 -0.38500965 -0.17089434 0.4422501 0.27553228 -0.22379154 0.0060035908 0.41046858 -0.3590048 0.43757737 -0.041061223 -0.19676621 -0.09697716 -0.22511531 -0.33615538 0.44872797 -0.47430092 0.01892359 0.5733924 -0.3854023 -0.24935521 0.3167385 -0.08915646 -0.4025356 0.2932294 -0.32075498 0.2696695 -0.89924 0.31611672 -0.11493841 -0.31684467 0.45266137 0.31826076 0.29858285 0.34926414 0.006272754 -0.10785058 -0.14631338 -0.0788045 -0.0956115 0.5540097 -0.16302256 0.599617 0.10151028 -0.014720663 0.7029411 0.627505 0.191224 -0.118615806 0.6923627 0.11266195 -0.22135085 -0.0425501 0.09631636 0.11893838 -0.10970122 -0.16695975 0.38493586 0.3920163
他 -0.31932545 0.23888211 0.38260788 0.11725621 -0.074063264 -0.59582615 0.4478361 0.804988 0.27241132 0.34531415 -0.11232616 -0.33204964 0.022534022 -0.20936105 0.55739063 0.050237868 -0.004408605 -0.13401109 -0.5843915 -0.3018563 0.011888203 0.07433299 0.3891926 0.07336725 0.03589355 0.33837506 -0.14475681 0.16302241 -0.7196657 0.40196428 0.31099454 0.3650727 0.7506225 -0.031622145 0.07942008 0.4232321 0.1336489 0.09906374 -0.485297 -0.33949488 -0.2930978 -0.17999001 -0.36965403 0.09411894 0.1635823 0.19695978 0.18009673 0.033547267 0.1947601 0.30376157 0.44182763 0.049605288 -0.1938859 -0.54564303 -0.1012566 -0.023893945 0.43028185 0.076312065 0.01221056 0.5766364 -0.30080825 -0.16707206 0.055848118 0.10652406 -0.29895633 -0.24408576 0.076726526 0.051716346 -0.7133579 0.08404131 -0.14305459 -0.2760513 0.25341707 0.09951408 0.17867146 -0.14348012 0.16065907 -0.35931376 -0.24479142 0.011911282 0.14930041 0.4774692 0.33662945 -0.1805247 0.03384737 0.1985109 0.3184964 -0.087729886 0.56147796 0.13153479 0.38807118 -0.37207437 0.14755039 -0.24369223 0.37586293 0.246267 0.37715474 0.24310686 -0.015051574 -0.30710518
我 -0.37127507 -0.42947432 -0.1959022 0.29926282 0.11099357 -0.70042586 0.61682415 0.61111677 -0.005509349 -0.76549965 -0.17783858 -1.0430379 -0.32349992 0.651665 -0.042493418 0.4249667 0.08664217 -0.22269411 0.07646419 -1.6191014 0.39181808 0.13957168 0.658768 0.2857051 0.490822 0.27099213 -0.6544418 0.35704964 -0.56080955 -0.6171287 0.96578205 -0.126035 0.7872469 0.12398503 -0.540716 1.037195 -0.27082467 -0.5855799 -0.20496821 -1.0619224 0.06134058 -0.8125663 -0.71490073 0.019935302 0.5185577 0.19994582 -1.4831198 -0.3754884 0.6587248 0.07792886 0.03705267 -0.1399117 0.19820186 0.15039693 -0.04492671 -0.97922695 0.2908038 -0.6535226 -0.48080698 0.70833325 0.24735087 0.0077235545 0.67117226 -0.7951767 -0.3193058 0.44964525 -0.22610979 0.68583196 -1.2698833 0.13525529 0.32878968 0.8327239 0.47997025 0.08589938 0.54781353 -0.24450684 -0.10228263 -0.037816927 -0.51690763 -0.55874085 0.40502766 0.460018 -1.0556179 0.6294907 0.015458446 0.31214884 0.63172525 0.273054 -0.07812918 -0.40168557 1.0294431 0.7477778 -0.39259198 0.40012068 0.6931791 0.2349802 -0.25187925 0.013336014 0.22308093 0.47324875
你 -0.11856194 -0.18582535 -0.3635192 0.29066432 0.19521026 -0.7865983 0.67201656 0.80010235 -0.36361563 -0.8736611 -0.31299406 -0.9722027 -0.39746207 0.5709832 0.009920057 0.41017374 0.35150337 0.220287 0.25546753 -1.7641306 0.2832797 0.015804578 0.8828976 0.07110321 0.48129588 0.25506705 -0.80024254 0.5213869 -0.39988402 -0.37551975 0.9798583 -0.23282649 0.9365344 0.13163085 -0.30867183 1.356806 -0.30588093 -0.44776013 -0.4585461 -0.89154035 -0.02016044 -0.79481214 -0.7878614 0.11580163 0.4039273 0.24479695 -1.5051962 -0.36341605 0.64735365 -0.18485884 0.31246594 -0.033440217 0.1130422 0.2539591 -0.46955836 -1.0372533 0.13201135 -0.89321345 -0.4732354 0.8692613 0.17258905 0.05455093 0.7074803 -1.0399854 -0.28773585 0.3878234 -0.2766876 0.68549836 -1.3487303 -0.022428226 0.15694173 0.7867858 0.37228876 0.31451267 0.6523478 -0.3926496 -0.20741828 0.30398974 -0.51199806 -0.37164158 0.28829765 0.49639702 -1.0726296 0.58734155 -0.16906641 0.2868578 0.7843089 0.20633666 -0.16837366 -0.5743463 1.2743663 0.8745895 -0.5913171 0.4129071 0.60890526 -0.03340033 -0.30332837 -0.12541887 0.25412872 0.68044096
说 -0.20047486 0.51904786 -0.32301912 -0.13820039 0.37134725 -0.70469946 0.37770513 0.57988346 -0.06848311 -0.9928296 -0.11938606 -0.6058207 0.100392535 0.09583779 0.024735369 -0.13466698 0.57255346 -0.17876624 -0.02962215 -1.3770784 0.04343601 -0.3462738 0.83894587 0.20130442 0.34036958 -0.2293392 -0.6905541 0.8561835 -0.09740543 -0.57407004 0.7030457 -0.6365565 0.55017996 0.029241087 -0.2834089 0.81759894 -0.5443521 -0.5032551 0.00022569443 -0.6245412 0.027160676 -0.70333755 -0.43911627 -0.20018111 0.16264062 0.14139271 -0.88994783 -0.2887511 0.037294928 0.044948936 0.028499523 -0.58217174 0.15481065 0.12944798 -0.6565065 -0.92108214 0.540744 -0.6434598 -0.4492499 0.51123524 -0.018885182 -0.115154825 0.6474923 -1.1278836 -0.20271698 0.53439146 0.58561575 0.5863718 -1.566819 0.12576519 0.4708335 0.4863133 0.5918426 0.5458465 0.47741607 0.26629937 -0.36010662 0.1989164 -0.7307175 0.13720179 0.060702607 0.08662551 -1.1100191 0.36318308 0.25605133 0.20718564 0.9961996 0.13834675 -0.05232227 -0.3498104 0.68202615 0.9259306 -0.59906507 -0.14034793 0.8493031 -0.24130149 -0.026588418 -0.12382489 0.10190523 0.48995367
侯亮平 -0.69642276 0.5643731 0.14859281 -0.26943305 0.22579736 -0.5532146 0.29998192 0.8879531 0.13010138 -0.2915793 -0.013623286 0.05061183 -0.11162658 -0.03543929 0.21952707 -0.17358296 0.038660493 -0.722363 -0.4816676 -0.6360899 -0.17196405 -0.13239536 1.0541701 0.41460323 0.11942798 0.40263888 -0.27070424 0.8021876 -0.9080292 0.033911124 0.52206564 -0.5882177 0.2628922 -0.14382045 0.011769842 -0.14804955 0.13556407 -0.13132486 -0.326704 -0.2847234 -0.77395827 -0.24841501 -0.8047848 0.26623985 -0.20163928 -0.5077424 0.1982808 0.19896299 -0.24240111 0.51433265 0.19209662 -0.5291689 -0.10958442 -0.12851915 -0.21543384 -0.23163252 0.5753347 -0.3068302 -0.34864122 0.2481383 0.25221395 -0.3166616 0.15446721 -0.2546581 -0.12776273 0.33324268 0.54876584 0.22416605 -0.83169943 0.22140305 0.5662512 0.32465038 0.15512373 -0.18654732 -0.013182522 0.040966798 -0.027313419 -0.31362164 -0.1660897 -0.14832345 0.06523052 0.2751416 -0.24827722 -0.63906306 0.24931954 0.22017467 0.41851887 0.0061057447 0.30102304 0.04445346 0.55916214 0.004928824 0.3536923 0.1654798 0.36370197 0.41962603 0.16248693 0.09211624 -0.07650327 -0.17606163
在 -0.65316373 0.40006584 0.103962824 -0.16085787 -0.5295242 -0.3384864 -0.30450788 0.69427973 0.092728056 0.9257151 -0.36861932 0.3364452 -0.48354235 -0.3239406 0.97518975 -0.120973244 0.007026263 0.04453075 -0.38195652 0.80215716 0.77228254 0.050339412 0.26903078 -0.150872 -0.06290283 0.24648504 0.23482747 0.14101405 -0.88725525 1.2860097 0.050933134 0.10791278 0.7648531 -0.8866398 0.20127144 -0.12708305 0.28378597 0.3788441 -0.68102586 0.6095296 0.03613104 -0.26169634 -0.35091594 -0.0861833 0.2148466 -0.057756126 1.2270169 0.4071646 -0.03586284 0.40350255 0.77771217 0.27274275 -0.49334395 -0.41967857 0.25904545 0.8105197 0.31050634 0.47307515 0.030987244 0.6872424 0.032310933 0.010018023 -0.4423173 0.8044206 0.07497974 -0.57330525 0.31704462 -0.0053933007 -0.04276426 0.8289781 -0.21841817 -0.5849297 0.58369607 -0.01812989 0.41640273 0.38369626 0.43219033 -0.386652 0.32415926 0.42305407 -0.23796369 0.41589618 0.83915466 -0.37955126 0.7437747 -0.08278142 0.49780986 0.31614402 1.1978939 0.030598141 0.2359362 -0.96307534 0.44963887 -0.9944491 -0.26365536 0.84728175 0.5195962 0.12252021 -0.24764842 -0.24241905
也 -0.107127085 0.27344137 0.21150775 0.1364536 -0.038514927 -0.5759998 0.5051562 0.85990655 -0.028784685 -0.36269417 -0.26424623 -0.8717066 -0.23937441 0.032933492 0.016489813 0.18629138 0.24578562 0.22527957 0.12518685 -0.9012332 -6.0012346e-05 -0.024049226 0.57775986 0.26383618 0.21480216 0.2750312 -0.24425837 0.43838108 -0.4266046 0.112996 0.40624094 -0.016896179 0.8779912 -0.023650048 -0.06784432 0.8019532 -0.14170696 -0.22899196 -0.43821898 -0.389647 0.08016599 -0.7665536 -0.4271941 0.15079644 0.4678974 0.29950237 -0.4800228 -0.28325412 0.33404824 0.066442534 0.32601237 -0.06406885 -0.026004493 -0.09698329 -0.41758263 -0.45624232 0.41745043 -0.45120654 -0.24888925 0.48406646 -0.2745305 -0.15487745 0.35790923 -0.2228406 -0.2617958 0.2738789 0.26649463 0.29333493 -0.9938854 0.10640327 0.08393781 -0.00094034197 0.29899925 0.19041166 0.2381881 -0.035540007 0.19692256 -0.14415614 -0.20278184 0.076612994 0.09099228 0.21808015 -0.2735883 -0.06584903 0.103574045 0.072041556 0.6583346 0.046682496 0.1669111 -0.26571563 0.5953899 0.23339751 -0.27963534 0.018321393 0.30231073 -0.21916425 0.04543761 0.0016095092 -0.003881232 0.527535
就 -0.3732844 -0.025149658 0.04570925 0.22740431 -0.050845105 -0.08847791 0.42516875 0.9223438 0.063556656 0.052695762 -0.33351362 -0.4768202 -0.78905356 0.11621741 -0.18450397 0.34686187 -0.067763366 -0.14413604 0.26984414 -0.7364883 0.2510938 -0.09767032 0.52659136 0.33611152 0.41178164 0.21126537 -0.10732014 0.4403898 -0.38719392 0.23291178 0.4690099 0.010864245 0.4322535 -0.007263262 -0.14755851 0.8093265 0.14105149 -0.34149715 -0.53911775 -0.51265544 0.15571706 -1.0295691 -0.58848125 0.29871866 0.6126131 0.25948974 -0.95759434 -0.1977644 0.35312772 0.14962739 0.46844146 0.24668738 0.07787637 -0.10445448 -0.42899236 -0.31058103 0.28481865 -0.32690063 -0.36299187 0.82225686 -0.05825907 0.030964104 0.1239554 -0.29306987 -0.04943794 -0.13948284 0.3239101 0.4650222 -0.60872453 0.23238982 0.104137585 0.43703634 0.122940905 -0.10039478 0.3642632 -0.27664587 0.32916263 -0.16710319 -0.26516187 0.05419089 0.21254839 0.121863976 -0.015074598 -0.063745394 0.07383183 0.094018325 0.46988332 -0.11804349 0.3593259 -0.34764278 0.50112253 0.26196736 -0.50420713 -0.12860334 0.53668696 0.14704458 0.43466294 -0.12803894 0.0006512096 0.43943098
… -0.506453 -1.1327112 0.5555325 0.3278159 0.46993905 0.19784817 -0.10209548 1.1968153 0.29179293 0.6561611 -0.97898597 -1.1051551 -1.059851 1.2818704 -0.82531834 1.0540447 -1.2794033 -0.1784293 0.099844575 -1.1440879 1.7507178 0.104635514 1.0701548 0.0515734 1.1022859 1.1552287 0.65377796 -0.07589155 -0.7127029 0.016976938 0.9339476 -0.67559063 0.41845703 -1.1283884 0.6255959 1.0108225 0.8487275 -0.591775 -0.921859 -1.2564951 0.27419722 -1.264536 -1.5763273 0.42616498 1.5472189 0.9526891 -1.1857053 -0.2096715 1.014759 0.70082843 0.548385 -0.7647694 -0.5655253 0.31858283 -0.04933159 0.6318576 0.11535157 -1.0554343 -0.7802596 0.41384548 0.45358536 0.40846783 0.291124 0.63138694 -0.19706282 0.15044434 -0.4958776 1.2412466 0.34107128 1.0096523 0.95916873 1.2912064 0.49565116 -0.20423633 0.41725153 -1.2981294 1.0739986 -1.056883 0.8438186 -0.31811386 -0.109088056 -0.9653218 -1.1720618 -0.8100172 -0.20090304 0.069083616 -0.2434195 -0.25820285 0.013903173 -1.3128217 1.1989768 0.34677935 0.55707836 0.14933428 -0.7585235 1.1535497 -0.7083942 0.07460949 -0.35422668 1.1210651
和 -0.42158368 0.36785746 0.086334646 0.20601372 -0.43690917 -0.5968899 -0.16847341 0.6175614 -0.2924091 -0.19366819 -0.4879913 -0.5747732 -0.18050177 -0.24716276 0.67568576 -0.4066173 0.4070436 0.3997479 0.08354767 -0.23564999 0.16877195 -0.025469664 -0.1653631 0.027543364 0.015626593 -0.23230116 -0.16581722 0.287716 -0.46583605 0.2586335 0.12413069 0.17602272 0.829499 -0.35465202 -0.25724676 0.8161567 -0.22847883 -0.1864059 -0.33399767 0.22638594 0.34068623 -0.31861928 -0.080223605 -0.5057422 0.57122993 0.1822761 0.2505577 0.2062105 0.224034 0.041371483 0.40267602 0.027974892 -0.24845725 -0.25181136 -0.07947076 0.044347093 0.37095007 -0.2564969 0.022447973 0.3622043 -0.3853153 -0.043932118 0.2093398 0.2684371 -0.44299388 -0.12511966 0.047182374 0.15728112 -0.5489867 0.58726126 -0.34280303 -0.36670724 0.6606167 0.3930534 0.57092977 0.66762346 0.15882047 -0.10612893 0.076305896 0.58180285 0.1508725 0.51099336 -0.2721849 0.38862053 0.41857302 -0.15803659 0.600187 0.8206863 0.34649357 -0.14437489 0.39895993 0.17144367 -0.40043423 -0.52320296 0.24743463 0.3684576 -0.2952033 -0.22110094 0.27213612 0.29246214
啊 -0.070530936 0.05103915 -0.28851223 -0.23717487 0.4822038 -1.1845777 0.32765242 0.30560642 -0.06688914 -0.95162374 -0.51212233 -0.8458905 -0.17046924 0.3787064 0.40983462 0.113608874 0.5028159 0.3731857 0.28077987 -1.3614656 0.2857223 0.041037668 0.7169813 -0.23651952 0.41780534 0.631406 -0.66713667 0.43872836 -0.42401522 -0.27766833 0.8571435 -0.40348533 0.5094124 -0.32640728 -0.4428039 0.7724634 -0.4977285 -0.10281448 -0.41508093 -0.7484828 -0.16815071 -0.22490567 -0.68853956 -0.2367007 0.27511135 -0.027116237 -0.77235264 -0.37159312 0.7293139 -0.30224648 0.29591036 -0.50570107 -0.028326739 0.18264318 -0.16406791 -0.45745167 0.35509935 -0.35383448 -0.56042486 0.6683533 0.296499 0.24819203 0.35084787 -0.60022014 -0.23910944 0.7637571 -0.5994388 0.61519295 -1.2456542 0.3421937 0.31538936 0.25135246 0.66342425 0.26283035 0.20186189 -0.017937183 -0.4822996 0.25686273 -0.5703022 -0.51121634 0.28520215 0.7121929 -1.3534744 0.69653136 0.14141835 0.24037138 0.31275833 0.8621809 -0.459569 -0.70190805 1.7005004 0.6299997 -0.31012085 0.11928742 0.31886223 -0.08840815 -0.24396472 -0.0035406896 0.15185428 0.1957551
不 -0.20832197 0.14554818 0.25466233 0.24567136 -0.010138158 -0.8586497 0.5823968 0.7722274 -0.0897627 -0.51982194 -0.28525466 -0.7227977 0.03261196 -0.014663214 0.51507825 0.1991948 0.8563296 0.036765773 -0.03513386 -1.2821949 -0.033112217 0.063305914 0.567154 -0.18745467 0.13007891 0.5556493 -0.71054596 0.5322036 -0.5994737 0.15331118 0.38726836 0.28001624 0.5986548 0.2137928 -0.45178306 0.50927305 -0.5281877 -0.26879606 -0.38940623 -0.5153795 0.060267217 -0.22490667 -0.35473397 0.06258431 0.20218407 0.0098794745 -0.73021805 -0.48102686 0.5262401 -0.19575036 0.30628785 -0.15173224 0.02160305 -0.316949 -0.67814845 -0.62535936 0.36490437 -0.32294855 -0.22988898 0.93676525 -0.0794564 -0.29982537 0.41695315 -0.67959595 -0.10003445 0.40358013 -0.4016126 0.40131924 -1.5179508 -0.040347762 -0.012691626 0.157354 0.2705653 0.16015399 0.46179202 -0.10981997 -0.2296005 0.09837211 -0.49206752 -0.22762422 0.1383603 0.87115735 -0.55085313 0.5567849 0.15614861 0.1260128 0.62311685 0.29360175 -0.0026102357 -0.14473642 1.1582731 0.19283669 -0.40265894 0.10277573 0.36825684 -0.2529034 0.24886677 -0.07663594 0.3600973 0.35482472
李达康 -0.24835159 0.381763 0.022771765 0.017914131 -0.017400503 -0.4792652 0.16462824 0.44988462 0.16659574 -0.03071044 -0.008446625 -0.21868986 0.18697618 0.025233055 0.22887886 -0.10529579 -9.349471e-05 -0.15166895 -0.37332493 -0.41365555 -0.20479222 -0.21211866 0.60593694 0.31912738 0.04404094 0.34087855 -0.1899931 0.24064521 -0.5171478 0.17211723 0.2138523 0.01698243 0.6473272 -0.0004529518 0.027037594 0.44039112 -0.25951126 -0.020031413 -0.5251679 -0.19794965 -0.67873526 -0.03920245 -0.5947921 0.11013322 0.06635245 0.1358998 0.06431893 0.09086282 0.00068081246 0.27249548 0.38775945 -0.2781506 -0.26495835 -0.12520555 0.008987428 -0.35365 0.7320883 -0.24400976 -0.27959314 0.096802175 -0.21477538 -0.13645399 0.0636184 -0.24895853 -0.32041413 0.13764454 0.5005098 0.19599469 -0.914631 0.23152824 0.5307084 -0.30814904 0.10769129 -0.12362945 -0.06499767 0.16649844 0.06520544 -0.25156078 -0.3192645 -0.1906257 -0.04167052 0.22899722 -0.20257288 -0.4675303 0.063142024 0.31479913 0.4394942 0.123313114 0.390684 0.07936594 0.6929086 -0.03116464 0.139196 0.06847266 0.18594511 -0.11760958 0.056350756 0.29550236 -0.22068572 0.12871829
这 -0.018240925 0.03587366 0.23314485 0.102240354 0.26257598 -0.71374714 0.39553806 0.74126244 0.0262367 -0.29042614 -0.17126535 -0.74610245 -0.1706889 0.35442194 -0.10777034 0.117505044 0.12924626 0.23076756 0.136312 -1.1540631 0.24875493 0.05664777 0.5697549 0.111349136 0.37041575 0.42338634 -0.16172697 0.16355054 -0.27694458 -0.10519516 0.34418908 -0.002850846 0.56011087 -0.21144457 0.1587926 0.74072814 -0.2956405 -0.26545882 -0.47259516 -0.769612 0.061958276 -0.446085 -0.6295157 0.053016562 0.4917732 0.48498014 -0.65671223 -0.12359447 0.5136496 -0.102280565 0.2768068 -0.32082397 -0.2758711 0.10354709 -0.43870422 -0.42345974 0.5027821 -0.45133877 -0.34367177 0.48172703 -0.018505918 -0.007957711 0.25383723 -0.28444403 -0.1779825 0.38718662 -0.1495857 0.5237323 -1.1830994 0.25194076 0.29072532 0.18323812 0.35592657 0.05289171 0.37866306 -0.20152801 0.0031702854 -0.035205368 -0.37150058 -0.31294292 0.042541645 0.23598492 -0.7301337 0.17686729 -0.029542955 0.2468672 0.41303834 0.1856093 -0.06877306 -0.32933807 1.1692259 0.24787143 -0.27460894 -0.016403496 0.14216956 0.035384536 -0.11176837 -0.051892348 -0.005231672 0.4713686
有 -0.23351228 0.22543916 0.11956448 0.39412236 -0.2575439 -0.58087164 0.10738269 0.5902575 -0.2543831 -0.15636721 -0.36497667 -0.63600653 -0.30296293 0.076200105 0.53683424 -0.093105875 0.4440045 0.2631285 0.28672868 -0.6367408 0.15492964 -0.036417525 0.20086434 0.014053293 0.107286386 0.21268626 -0.41674027 0.4753806 -0.3402525 0.4938743 0.24973571 0.38882554 0.55903244 -0.13772644 -0.33088198 0.645334 -0.22416736 0.059166808 -0.47540367 -0.34765646 0.15321161 -0.5118576 -0.4368385 -0.041391086 0.33610263 0.23764198 -0.39878243 -0.17979167 0.37481558 -0.26273528 0.6501445 0.27047923 -0.21695 -0.2411306 -0.37186956 -0.18147783 0.3250212 -0.2383571 -0.086676106 0.78030795 -0.4095493 -0.10303914 0.119964205 -0.17282043 -0.20576538 -0.039956663 -0.12870058 0.13451225 -0.80188334 0.47661868 -0.24478883 -0.22537011 0.25100145 0.24173297 0.4155731 -0.014928749 0.033104427 0.020159502 -0.18293257 -0.116937324 0.10954093 0.5711189 0.1573739 0.3370824 0.1812041 0.098917715 0.62701917 0.37911472 0.4426144 -0.13495506 0.6271986 -0.0024944888 -0.35008833 -0.2676472 0.26421127 0.04045109 0.44937626 -0.101520516 0.2308088 0.3099633
着 -1.0748098 0.8940705 0.08530195 -0.48133916 -0.36559632 -0.48002955 -0.08529309 1.5227885 0.21337397 0.110654175 -0.43376458 0.6218506 -0.18739614 -0.3611311 0.5618352 -0.5026329 0.22197165 -0.9427205 -0.7288283 0.42738697 0.014688324 -0.48987466 1.0063623 0.05352932 -0.29082745 0.3624172 -0.043261416 0.8548047 -0.7138455 0.9611333 0.008549136 -0.5383263 -0.2799041 -0.52246195 -0.2638857 -0.6279548 0.37797943 -0.060412344 -0.4186221 0.6234915 -0.8396382 0.3783451 -0.6288136 -0.09679525 -0.1574965 -0.9460653 0.97507167 0.22152184 -0.6521468 0.59914595 0.51635957 -0.4275069 -0.23519821 -0.38566458 -0.17760912 0.36177117 0.49270967 6.467371e-05 -0.023109036 0.2805808 0.21472521 -0.16475315 -0.19457193 0.18036222 -0.022038333 0.0983522 0.49111784 -0.073859856 -0.1847621 0.39665914 0.89632815 0.19474265 0.012734188 -0.4304112 -0.10276857 0.22705378 -0.02138713 -0.31384596 0.13374427 0.63198984 -0.10883632 0.32087794 0.2837124 -1.0079194 0.6577832 -0.20360796 0.4291101 0.5435471 0.87445635 0.29782274 0.5434424 -0.37069592 0.5982595 -0.44790682 0.06709807 0.50879925 0.612038 0.019918822 -0.18354182 -0.14085674
都 -0.03019658 -0.05916942 0.48089182 0.4028621 -0.32314414 -0.6822254 0.34457532 0.802203 -0.19362104 -0.038197506 -0.3573948 -0.7741841 -0.38825098 0.07466965 0.3115457 0.32284486 0.28875107 0.5589905 0.29309413 -0.7410104 0.08521915 0.11173622 0.102795005 0.17220056 0.35281327 0.4697306 -0.2196425 0.27125952 -0.5591785 0.44187617 0.36831206 0.5898594 0.93436503 -0.023192903 0.057509486 0.91201234 -0.096252754 -0.047530696 -0.70982563 -0.42700925 0.2824944 -0.79209274 -0.31640267 0.11216044 0.664462 0.38565257 -0.38237035 -0.17067528 0.66059566 -0.0015364661 0.6060513 0.32558054 -0.27424708 -0.20602721 -0.4685588 -0.06844932 0.26025096 -0.12215199 -0.16101055 0.70851034 -0.4633811 -0.14649439 0.26827168 0.10302109 -0.36742562 -0.04981753 0.027219333 0.07340114 -0.70601904 0.2583673 -0.4815517 -0.31561697 0.13971095 0.14569572 0.3474671 -0.14381357 0.3563172 -0.121405184 -0.14136606 0.08023793 0.27919543 0.55369663 0.13804962 0.16814598 -0.04311721 0.13499466 0.35702142 0.08833898 0.13943203 -0.14406346 0.55886185 -0.13176468 -0.41735417 -0.04047608 0.036999885 -0.10202877 0.17077702 -0.21765627 0.07805384 0.3494457
高育良 -0.1677631 0.7087096 0.3582567 -0.30038148 0.25643152 -0.5551036 0.23383418 0.7037963 0.06022828 -0.31495425 0.038927924 -0.20944223 0.23881854 -0.0010747421 0.041343346 0.08626678 -0.071012914 -0.37863347 -0.36609915 -0.7784528 -0.38763022 -0.11988652 1.095025 0.5260159 0.19929437 0.73820376 -0.28809485 0.42596218 -0.847877 0.20554851 0.45016158 -0.5656988 0.40150928 -0.21419586 0.5164558 0.101434074 -0.17026694 -0.019948341 -0.57131594 -0.4031441 -0.9360813 -0.35595822 -0.9630651 0.5868569 -0.18367083 -0.11252229 0.40175122 0.11568594 -0.08147736 0.3309421 0.3145794 -0.6849132 -0.2678425 0.21989949 -0.06711871 -0.26415464 0.7637347 -0.2374821 -0.7084247 -0.10571804 0.07552435 -0.33922112 0.123548746 -0.1709573 0.16575897 0.47571167 0.84937733 0.25513673 -0.96400464 0.018657995 0.77287316 -0.15866207 0.10692759 -0.124538735 -0.47196564 0.39266768 -0.075510405 -0.40552747 -0.19857308 -0.33538717 -0.21593772 -0.2485098 -0.21758497 -0.8675884 -0.1429653 0.34293452 0.29349554 -0.16245764 0.03826556 0.11426728 0.6415727 -0.018950727 0.36077768 0.5157089 0.13452245 -0.19146523 -0.038225923 0.30566058 -0.5867084 -0.15961178
把 -0.72655684 0.30493665 0.07371013 0.11751094 -0.44811177 -0.243227 -0.09983418 0.82995445 0.087450795 0.5437989 -0.46942914 0.064686485 -0.26425847 -0.21253957 0.467438 -0.12666713 -0.04290602 -0.2619177 -0.22473855 0.08673735 0.13190988 -0.38960537 0.30747068 0.101237 0.052189283 0.031505026 0.11526012 0.42311475 -0.5700779 0.7017479 0.009414804 0.27489105 0.48176873 -0.25647527 -0.17260832 0.36780784 0.01692294 -0.0724429 -0.38731083 -0.029946819 -0.23413092 -0.3297298 -0.45483452 -0.23817672 0.38944495 -0.11769949 0.026513204 0.11871751 0.07034086 0.5628506 0.67107505 0.10574071 -0.28070295 -0.4867844 -0.28059277 0.16422048 0.4110957 -0.25657827 -0.29037446 0.47664008 -0.19329911 -0.083908305 -0.28154922 0.030995063 -0.2742719 -0.3609593 0.5156349 0.14271685 -0.33949998 0.5472576 0.14571355 -0.101074696 0.15772396 -0.12264432 0.4653649 0.18714292 0.39314047 -0.22868744 0.09153065 0.5391421 0.29373288 0.34048095 0.21161011 -0.37022337 0.31201512 -0.049394242 0.33882198 0.3933719 0.6034291 -0.113025874 0.48893812 -0.26556233 -0.2520909 -0.6382788 0.361893 0.16428477 0.39403462 -0.25082234 -0.010144509 0.17656974
蔡成功 -0.668501 0.15143408 0.061732024 0.08280249 -0.20088814 -0.17171177 0.24923334 0.65046227 0.24878098 0.2762812 -0.2522742 0.06238783 -0.20647149 0.047358647 0.6358544 0.05050704 -0.17158704 -0.5828162 -0.658866 -0.2393723 0.0040829093 -0.24378121 0.27373272 0.005486217 0.20834945 -0.06935985 -0.40560287 0.51808167 -0.4868026 0.3669587 0.53986084 0.251215 0.35811657 -0.0800229 -0.5187345 0.34590113 0.1995062 -0.2570438 -0.14357401 -0.85238546 -0.20782635 -0.6255211 -0.50519466 -0.2835336 0.0937321 -0.090999566 -0.5201774 -0.13787642 -0.020808775 0.5965319 0.5793608 0.15728514 -0.033483755 -0.88269204 -0.396002 0.096675724 0.29689384 -0.12454145 -0.12652673 0.70575345 -0.35382774 -0.26493043 -0.056869514 -0.37288415 -0.40216577 -0.20797843 0.37462553 -0.019194944 -0.5148731 0.34307885 -0.181391 0.30696172 0.13311274 0.33945823 0.48142242 -0.36153504 0.27315202 -0.33733523 -0.29041332 0.4118657 0.4418774 0.5469161 0.6354625 0.06246661 0.25006303 0.1848194 0.56534654 -0.09231397 0.502437 -0.027899312 -0.057495285 -0.13725875 0.05065043 -0.62052697 0.87362003 0.56365514 1.0034562 -0.34129402 0.026075587 -0.38119477
让 -0.47684756 -3.2971824e-05 -0.045148093 0.110242136 -0.26357505 0.021970171 0.22707075 0.67332065 0.21679643 0.19503178 -0.3129854 -0.4093646 -0.44313762 -0.18112832 0.2749858 0.0074290982 0.193392 -0.25957114 -0.089907035 -0.3943052 0.1895888 -0.2914458 0.14723472 0.25306752 0.18569298 -0.0111378515 -0.05485508 0.2088166 -0.2734704 0.33591998 0.25613642 0.47092286 0.64331025 -0.17962256 -0.5301459 0.89060175 -0.18140435 -0.5375864 -0.50582546 -0.27645338 0.21646704 -0.5974483 -0.117253974 -0.29588938 0.59636295 0.21093751 -0.40445977 -0.007960755 0.1588212 0.30421665 0.43285468 0.21279986 -0.07068633 -0.47274983 -0.26684454 -0.23463008 0.39372447 -0.23561922 -0.23393756 0.84104025 -0.21070248 0.09264906 0.009322 -0.024776435 -0.49021912 -0.21051389 0.23324265 0.3420048 -0.69289243 0.4882626 0.00022262712 0.17310736 0.33684832 -0.16037469 0.51655227 -0.02616887 0.51711994 -0.26060396 -0.17029248 0.39413828 0.1956359 0.36299154 -0.39326835 0.14056784 0.20981565 -0.13198617 0.6327499 0.58585143 0.6074283 -0.3674644 0.517275 0.3054744 -0.6723676 -0.5101684 0.48727944 0.015789771 0.424991 -0.21960777 0.12365333 0.43013805
祁同伟 -0.13742211 0.4778977 0.17205502 0.10133765 0.030622834 -0.66591954 0.27107692 0.7933777 -0.21154012 -0.4437989 -0.06760711 -0.35178736 0.19103909 -0.01650621 0.32121035 -0.03287322 0.32030314 -0.26170537 -0.24070045 -0.75770485 -0.41259176 -0.18782225 0.48023257 0.24320973 -0.044095136 0.29295477 -0.5861401 0.6576507 -0.59832966 0.07179645 0.33077142 -0.062653504 0.47041115 0.014621009 -0.00634698 0.25445378 -0.093415625 -0.1878514 -0.35910186 -0.16845495 -0.48818275 -0.22535749 -0.5669365 0.19985281 0.025168402 -0.16891474 0.20878504 -0.015374503 -0.02378985 0.19775759 0.27464405 -0.23565009 -0.22459683 0.020625297 -0.18800542 -0.40168595 0.49084976 -0.31422025 -0.17425074 0.29632658 -0.19214448 -0.3322524 0.3066397 -0.16794653 -0.22641629 0.25936076 0.32488218 0.09478986 -0.81622994 0.119837314 0.17862546 -0.020005967 0.17172538 0.08799038 -0.034547374 0.30642822 -0.12538901 -0.20868233 -0.21178134 -0.027229827 -0.025611863 0.26280648 -0.2629052 -0.13058352 -0.05505 0.22925591 0.49876925 0.26171649 0.2831743 0.19972835 0.47672486 0.11664238 0.065784246 0.407569 0.3836031 -0.029061228 0.09052098 0.056643687 -0.02391515 0.0026056273
老师 -0.19404782 0.36220798 -0.39358532 -0.5658686 -0.66003895 -1.196876 0.31574103 1.3148232 -0.3508379 -0.73240674 0.44730648 -1.373699 1.0555198 0.69660175 0.027885685 -0.78817374 0.52981997 0.46031025 -0.21516341 -0.68985975 0.3320551 0.41902903 0.778522 0.8047969 -0.33076414 0.10545867 -0.6832223 -0.19798224 -0.9572044 -0.5358351 -0.07775409 -0.3482312 1.9426504 0.12410011 -0.029827792 0.46472213 -0.3627903 -0.3019027 -0.42807007 -0.17662115 -0.5625721 -0.381427 -0.053494286 0.19858484 -0.37294206 0.062332273 0.2900193 -0.6082734 0.41935405 0.33192518 -0.5369489 -0.091909945 0.7275826 0.8002474 0.634569 -1.4829758 0.55805075 -1.1936748 -0.32604793 -0.123739675 0.50885326 -0.95065683 0.5745335 -0.8209963 -0.32110125 1.5849712 -0.2055613 0.10706539 -1.6481034 -0.22419354 0.7284306 -0.690421 0.9975095 0.25533193 0.62794876 1.1316577 -0.48846558 0.76004094 -0.9317772 -0.1337838 -0.3859686 0.5429727 -0.7544476 -0.05620179 -0.010747009 0.56849074 1.081241 0.15775318 0.08513723 0.3686852 0.93934894 -0.3414245 0.3566 0.3478348 0.78977454 -0.028179461 -1.02535 0.18750337 -0.59145826 0.26052728
要 -0.26597947 -0.17354739 0.08971914 0.37021104 0.025618304 -0.35962456 0.47236902 0.61448795 0.19315988 -0.061081655 -0.24431282 -0.62389064 -0.37437865 0.14673045 0.17199735 0.36697733 0.23005442 -0.05598739 0.06430213 -0.8344766 0.114168175 -0.17125998 0.35242885 0.04488631 0.3585387 0.3344952 -0.33232966 0.23217353 -0.41567677 0.08486253 0.50731164 0.33712843 0.7808536 -0.11245462 -0.35654578 0.93546736 -0.27095082 -0.446166 -0.42715368 -0.6040742 0.19296136 -0.6284071 -0.5166836 -0.07952491 0.6878713 0.33631414 -0.86049145 -0.17929132 0.5584611 0.09022737 0.41310441 0.030058242 -0.006857609 -0.19248457 -0.26854005 -0.43384373 0.35571414 -0.32886058 -0.31467518 0.9433315 -0.052190393 0.049101513 0.2336326 -0.29010138 -0.3382572 0.029292744 0.085722305 0.534185 -1.1125377 0.30888954 0.058313075 0.2280077 0.31009787 -0.1360112 0.47719824 -0.176742 0.18611147 -0.21805562 -0.1873154 -0.081609294 0.22859295 0.54193455 -0.5257614 0.22116803 0.04522585 0.0055159405 0.5171779 0.40575093 0.31573617 -0.33284706 0.99488425 0.39655033 -0.5480325 -0.13398819 0.43099025 -0.11992293 0.10730752 -0.025292413 0.19551584 0.44881633
还 0.016449105 0.16898148 0.08027259 0.12366872 -0.051628396 -0.6289143 0.35852346 0.85032594 -0.07653103 -0.45810318 -0.2846078 -0.71017754 -0.6328639 0.057689574 -0.014557884 0.15552524 0.09110133 0.20015964 0.39415857 -1.168241 0.0994197 0.042281263 0.42526495 0.37231937 0.36771902 0.16662289 0.09509324 0.2599007 -0.20101719 0.25247207 0.45955616 0.06766964 0.23764099 -0.016788907 0.01982072 1.1569732 -0.2606706 -0.27039996 -0.47217238 -0.6189398 0.06691112 -0.7498139 -0.5081811 0.08315726 0.66566324 0.4548167 -0.7254827 -0.05704045 0.34736672 -0.15439397 0.47909546 0.16333017 -0.30818808 -0.07116902 -0.7028567 -0.23030931 0.3507012 -0.26658016 -0.29630125 0.46052617 -0.5005515 0.14636998 0.19323781 -0.13553216 -0.26488525 -0.06511237 0.14123417 0.18210827 -0.80805945 0.18789287 -0.107306756 0.11360254 0.14155416 0.2647257 0.27985093 -0.13571906 0.06742035 -0.029589904 -0.5376689 0.08559118 0.3421475 0.108545 -0.3230637 0.2465722 0.034737647 0.15260972 0.45621753 0.20655069 -0.05301803 -0.328702 0.52994066 0.45602563 -0.34451506 -0.03198825 0.30617207 0.035892457 0.28097427 -0.35254237 -0.12802273 0.3983442
上 -0.5872701 0.6199034 0.2482032 0.053639304 -0.5461116 -0.6403123 -0.017070713 1.3128852 -0.098871246 0.47563964 -0.30597332 0.18596184 -0.5756428 -0.41167146 0.44670224 -0.46506977 -0.24777828 -0.25546718 -0.10549798 0.55228883 0.046195935 0.064845555 0.16597101 0.51903206 -0.3290854 0.03960756 0.57200694 0.24722728 -0.996062 1.0116001 -0.17636955 0.08155736 0.1000689 -0.33417362 0.456672 0.016407324 0.48190767 0.36743215 -0.5957805 0.61832094 -0.5145949 -0.12916462 -0.50490385 0.31437773 0.32256556 -0.17480054 1.1003025 0.68077934 -0.24760821 0.50727564 0.5188127 0.25138202 -0.61151934 -0.29631487 -0.07560537 0.482886 0.37012795 0.17503084 -0.010664703 0.14256826 -0.1402459 0.0045960727 -0.34445113 0.9483085 -0.018898226 -0.67307293 0.36192498 -0.27391577 0.16979212 0.34252635 0.052689895 -0.37812585 0.07472652 -0.28066543 0.18924296 0.561013 0.14220385 -0.35514623 0.1859128 0.37018213 0.13267247 0.06659768 0.88463306 -0.77900064 0.45475644 0.09680788 0.17679869 0.3194202 1.0364565 0.29852608 0.115805894 -0.79663396 0.44344234 -0.23475261 0.012475564 0.74500483 0.1922885 -0.115497686 -0.26724678 -0.28827527
— -0.7500971 -0.49338806 -0.32266897 -0.47711253 -1.973247 -0.660939 -1.8887378 2.3525097 1.1482211 0.5859721 0.0017446188 -1.7831278 1.2723522 1.751669 0.14847083 -1.4827683 -0.21069993 0.75962734 -0.60132635 1.5418646 1.9322094 0.8175372 -1.2912781 0.33098453 -0.23458277 -1.1831449 0.68679166 -2.2572982 -0.3380473 0.06475451 -2.0987298 0.15935098 1.5093769 -0.87795335 -0.41882905 0.57844895 -0.68565047 -1.9603549 -0.073915705 1.1525185 1.8017826 -0.016558869 1.1048782 -1.9895576 0.7951119 1.5148271 0.43512088 0.17258033 0.36227435 0.016363675 -1.3034796 -0.9758506 -0.23180425 -0.29113847 1.8111223 -0.28575048 2.066959 -0.035431646 1.1977638 -0.64770484 0.34801307 -0.26244769 0.42180708 0.79597723 -0.9786921 1.0201496 -0.20428593 0.44960222 -1.7580085 1.0779945 1.6161275 -0.80114937 1.9686215 0.16331193 1.719701 1.8768613 0.17803486 -0.7043247 -1.5792168 1.7993819 -0.8822026 0.3207774 -0.20710613 1.5888531 2.2528727 0.2051998 1.4239011 1.5389712 1.6791399 0.9338281 0.6397617 -0.94627446 1.3049358 -1.8812279 -0.67112815 2.572118 -0.9333974 -0.42538807 -0.33817607 1.767269
又 -0.34031385 0.43845224 0.24953079 -0.24761435 -0.21974054 -0.77303666 0.24532172 0.7066295 0.12668693 -0.1993994 -0.21272364 -0.3745043 -0.058823317 -0.12126154 0.5127942 -0.14080465 0.12205231 -0.18879107 -0.2963096 -0.43750742 0.0036041387 -0.030332556 0.5354052 0.34266797 0.11774923 0.37336507 -0.033949576 0.3696989 -0.8185385 0.42962933 0.38092604 0.02582384 0.44931307 -0.12578031 -0.07270868 0.34425703 -0.227935 -0.08583798 -0.5731438 -0.35506314 -0.35112983 -0.42883152 -0.32583824 0.025753703 0.10799948 -0.06699598 0.15541063 0.043031923 0.04949628 0.19813886 0.36242148 -0.11978576 -0.27504605 -0.4793784 -0.21720801 -0.09479724 0.5645935 0.16049588 -0.37570104 0.23201796 -0.15726765 -0.09903043 0.07460719 -0.018453712 -0.14756438 0.20113814 0.3197672 0.013078655 -0.892747 0.1747652 0.0748775 -0.13588123 0.31962243 0.17867506 -0.04997574 0.321535 0.052126046 -0.23390105 -0.4489854 0.0983598 0.26244646 0.35107908 0.028834198 -0.07800314 0.30063865 0.10518807 0.36147135 0.14637545 0.27735332 0.0035922816 0.48233315 -0.23466623 -0.012948562 -0.19473614 0.2420329 0.12054622 0.49305063 -0.032953307 -0.19221373 -0.2748517
一个 -0.31963766 0.33306262 0.11223631 0.37753302 -0.6097599 -0.4036043 -0.1836758 0.9551437 0.018853413 0.3416782 -0.3911967 -0.4481421 -0.1715175 -0.0081985425 0.5768918 -0.120095395 0.05008529 0.19166774 -0.18672681 0.24019507 0.09227409 -0.060305636 -0.13072719 -0.026442025 -0.0415158 0.026203768 -0.13283835 -0.05056279 -0.5512193 0.60826236 -0.14095257 0.26773626 0.6592977 -0.29617217 -0.10404434 0.49935547 0.017161809 -0.17203663 -0.5673303 0.43788496 -0.015117825 -0.19242865 -0.19854964 -0.18534282 0.44734877 0.2628192 0.44890887 0.2764706 0.08901249 0.13529569 0.50126153 -0.0076616015 -0.46588328 -0.3878509 0.14083943 0.1259568 0.6082582 0.027476026 0.24190454 0.25015476 -0.2918712 -0.031599484 0.003989625 0.46976346 -0.34098098 -0.42610058 0.20437208 0.15451479 -0.47873136 0.40266603 0.042437542 -0.32640907 0.3585868 0.10076538 0.26844886 0.45706508 0.22666146 -0.47822517 -0.050840065 0.51530844 -0.05437206 0.24239558 0.34299964 0.07490746 0.5208593 -0.008181426 0.43191957 0.5264869 0.8868022 0.15971164 0.31413364 -0.2816158 0.27238593 -0.28097844 -0.10734251 0.6311068 0.041154753 0.108870134 0.13311417 0.29278126
吧 -0.49902582 0.18366526 -0.5429826 -0.5881472 0.7409708 -0.96695673 0.6070547 0.088892914 0.16306409 -0.7604459 -0.5751755 -0.17226918 -0.75275874 -0.15142797 0.31766674 -0.019305492 0.33124998 -0.3085021 0.09287159 -1.1491762 0.19381942 -0.21208538 0.90447176 -0.20509157 0.24495083 0.31565782 -0.4577828 0.62717074 -0.3415588 -0.41259846 0.9307876 -0.3573218 0.022764439 -0.19504736 -0.74662644 0.49416184 -0.29254654 -0.116424724 -0.19890818 -0.82041204 -0.20997517 -0.22733808 -0.4409015 -0.31721643 0.25391728 -0.5324242 -0.9112403 -0.26205182 0.34530333 0.02597944 0.39678892 -0.40100688 0.25676858 -0.076526344 -0.5101134 -0.49124846 0.25896576 -0.3426901 -0.74471945 0.90345824 0.57205844 0.42126593 -0.03623033 -0.6738876 -0.26357475 0.4642402 -0.39870977 0.7062495 -1.17257 0.42866027 0.30187106 0.78302455 0.60568243 0.05635929 0.42871603 0.007617493 -0.47973004 0.28884423 -0.62145984 -0.23289466 0.8126885 0.8813105 -1.5124418 0.4402578 0.31890047 0.15643719 0.35767516 0.98199415 -0.3900419 -0.8672081 1.7435893 0.70938855 -0.7390353 -0.2741948 1.0517428 0.024315499 0.3024636 -0.23517832 0.24569571 -0.12030508
到 -0.9274545 0.13652351 0.14873464 -0.07066715 -0.34796375 -0.16301775 -0.05619559 0.09054479 0.2770368 0.76332814 -0.5161015 0.22053137 -0.5914246 -0.62698036 0.9949019 -0.0035404894 -0.12970716 -0.5169813 -0.06673407 0.44733536 0.5466402 -0.16821037 0.03209171 0.05764456 0.10015894 0.2652608 0.24806722 0.41118073 -0.9010292 0.86410236 0.3481558 0.6336495 0.45074067 -0.441659 -0.2794114 0.142901 0.03557535 0.09275587 -0.5765561 -0.2556768 0.1732059 -0.5209488 -0.038961455 -0.12157182 0.40971825 -0.36926967 0.51496655 0.010368862 0.11018085 0.71336156 0.7474663 0.25366804 -0.14102414 -0.7237831 -0.1294489 0.6062237 0.24282266 0.44891638 -0.5380722 0.6942382 0.034108575 0.009575123 -0.46928284 0.46955338 -0.26846126 -0.61281204 0.49171138 0.09733548 -0.18939413 1.0336964 -0.32991153 -0.06667165 0.37310293 -0.13756663 0.5940069 0.40090784 0.49277475 -0.49618837 0.32567298 0.47231013 0.44684428 0.62735295 0.22500977 -0.20193498 0.64114255 0.016247088 0.22963785 0.60035306 0.77100724 -0.1375213 0.3653297 -0.6388456 -0.39826986 -0.7349428 0.34094653 0.5235833 0.7623962 -0.27343965 -0.04601808 -0.2168994
书记 -0.22067747 0.47002417 -1.520554 -1.7135975 -1.0563879 -0.48631153 -0.9047303 -0.09206989 -0.6422629 -0.9608626 0.47832298 -2.516441 0.3560736 0.72284865 0.32682905 -1.325933 0.32036874 -0.016352318 0.05595528 -0.25140193 1.5277702 0.8702127 1.1029403 1.3798053 -0.91935617 0.39099213 -0.78911495 -1.4941264 -0.80167425 -0.94635063 0.080570154 -0.72356653 1.9901444 0.19825664 -0.5808144 1.4673902 -0.79024667 -0.84862125 -1.3763868 -0.24382818 -0.92164195 -0.7701979 1.040881 0.74006295 -0.5066917 0.6153621 0.8099558 -0.6796754 -0.009565218 -0.090539165 -0.7921465 -0.018341389 1.1250937 1.3248457 1.7044333 -1.9542464 1.1436207 -1.3671937 -1.0023094 -1.1326357 1.2684907 -0.13310365 -0.056685407 -0.3258452 -0.42458838 1.60956 -0.80053335 0.77348256 -1.5843074 0.36060074 1.4696972 -0.70036036 2.054372 0.84648055 0.1477074 2.370821 -0.47502673 0.4953207 -1.5118258 -0.7659003 -0.7245517 -0.31416 -1.9647549 0.5933796 0.8848946 0.8423724 1.2393312 1.261934 0.495636 -0.45261297 1.2007468 0.21258771 0.36565155 0.3850502 0.56337 0.81459635 -1.7217857 0.9494604 -0.9055858 0.40974778
呢 -0.3626074 -0.033115696 -0.12134769 -0.23490079 0.2728289 -1.3485804 0.26851422 0.36861926 -0.19357188 -0.5172505 -0.6176638 -0.36030638 -0.12571384 -0.010439021 0.80102557 -0.14590457 0.89699966 0.40302908 0.3457461 -1.0341723 0.26269984 0.116416454 0.34589818 -0.53966504 0.2601535 0.52672726 -0.62329483 0.7332214 -0.6124071 0.12429581 0.6960572 0.22024533 0.37505242 -0.068570934 -0.4987765 0.4224083 -0.4654214 0.251008 -0.6812491 -0.57204396 0.038291425 -0.13869546 -0.30849934 -0.32511368 0.020040674 -0.21498515 -0.6923282 -0.42577362 0.7478898 -0.12961788 0.55669075 -0.020689296 0.028232995 -0.32433793 -0.7851633 -0.22481112 0.18030569 -0.22514464 -0.43911618 1.0828238 -0.039097607 -0.11201082 0.16983221 -0.79970264 -0.39843178 0.41947177 -0.76693916 0.264874 -1.0193944 0.42636496 -0.29690033 0.011376681 0.4486128 0.3917098 0.71823573 -0.21163598 -0.47375467 0.5590262 -0.58927006 -0.13393411 0.42730474 1.3818742 -0.7500004 0.8298489 0.116443634 0.35041887 0.3216003 0.7090992 -0.4873537 -0.5467645 1.4735479 0.062404934 -0.38895178 -0.29216552 0.47746366 -0.016945802 0.34029907 -0.44837496 0.4677559 -0.11323896
吗 -0.35475397 0.49314445 -0.3351532 -0.6996435 0.4048698 -1.8229328 0.3589548 0.11243702 -0.105264865 -0.75638056 -0.63273865 -0.5043054 -0.24142036 -0.2557667 0.8659843 -0.6741151 1.268781 0.60047716 0.5918546 -1.2958668 0.13998453 0.24393822 0.45503542 -0.48322126 0.08703232 0.43453664 -0.3942649 0.5683144 -0.41130653 0.045207035 0.37968168 0.46638608 0.22093724 0.09825688 -0.704602 0.5166278 -0.9633103 0.52149564 -0.6540111 -0.77062285 0.020827143 0.04483455 0.039143912 -0.5256423 -0.20076706 -0.25890163 -0.853646 -0.4863571 0.7970385 -0.6350436 0.6219102 0.07898608 0.14529929 -0.44144228 -1.0410452 -0.637251 0.5596576 -0.16877991 -0.6748321 1.1581547 0.09903842 0.07405598 -0.13339762 -0.95939016 -0.4076678 0.5137831 -1.0803232 0.24699147 -1.8250313 0.51629996 -0.17567702 -0.37384966 0.5481939 0.51397395 0.80544305 0.21802853 -0.8912134 0.98466617 -1.1971353 -0.39353216 0.8807592 1.8408465 -1.0098573 1.1420765 0.4043575 0.38213664 0.3471126 1.2191674 -0.7284037 -0.6166663 2.254483 0.01464813 -0.8903772 -0.84229565 0.762393 -0.339988 0.66983646 -0.6453131 0.6161922 -0.17973043
没 -0.41250837 0.113330446 0.10772431 -0.21907085 0.11349647 -0.64589256 0.52246416 0.62265563 0.07399029 -0.1785554 -0.43343055 -0.122722834 -0.46964064 -0.13323829 0.44743472 0.13959515 0.33301347 -0.1652566 -0.34035105 -0.8778004 0.11739087 -0.34209123 0.93079543 -0.14119126 0.25564906 0.4430474 -0.3493535 0.6694409 -0.38499495 0.41358265 0.8292156 0.14940323 0.42956364 -0.12285498 -0.40773267 0.5851461 -0.14271751 0.054836515 -0.503771 -0.8155686 -0.29704797 -0.4326711 -0.434322 -0.102030925 0.21056978 -0.070071824 -0.713724 -0.25517774 0.15298855 0.0968456 0.7949842 0.18156797 -0.10826566 -0.5544493 -0.86355776 -0.12226872 0.16563529 -0.29888806 -0.31088737 0.88836336 -0.27855912 -0.05300702 -0.009099734 -0.50114524 -0.204304 0.13380504 -0.09731243 0.32213154 -0.80234104 0.14636424 -0.13554844 0.2385467 0.049470488 0.2671183 0.2840332 -0.65875787 0.18464577 0.107949436 -0.29128733 0.006399072 0.46479186 0.70125544 -0.11426978 -0.037851404 -0.006468851 0.022115331 0.585057 -0.06536581 -0.06538513 -0.55743486 0.6610039 0.07519173 -0.35143432 -0.40648648 0.56325924 -0.15444988 0.7638743 -0.13112128 0.08680655 -0.16173287
人 -0.29295278 -0.16639468 0.2821564 0.43578416 -0.204011 -0.46455312 0.16547555 0.77791494 0.0550161 0.28135386 -0.40882266 -0.48110873 -0.38687795 0.16923448 0.47361252 0.23764378 0.21519215 0.19036633 0.07353726 -0.5383339 0.2857524 -0.030028805 0.17478423 -0.31512156 0.26999784 0.47474375 -0.25440007 0.29511964 -0.34642333 0.6057806 0.22831036 0.58783174 0.50280654 -0.22910301 -0.2209822 0.5285092 -0.02124928 0.032960314 -0.6815111 -0.3545236 0.111136176 -0.29044536 -0.44222808 -0.047034692 0.42853215 0.3208417 -0.41077718 -0.10000115 0.48792392 -0.05494151 0.797933 0.32723844 -0.31586528 -0.53890413 -0.25443992 0.08408921 0.29953712 0.0751533 0.06651713 0.90553224 -0.43724868 -0.019598486 0.013011806 0.064085625 -0.3848609 -0.27722478 -0.2815156 0.24180594 -0.4284001 0.43326876 -0.16074203 -0.14334437 0.09782429 0.03901701 0.25070503 -0.61231947 0.29212123 -0.24806948 -0.10297029 -0.10932714 0.15455858 0.72445035 0.30487576 0.2222277 0.0975777 0.17014462 0.3598127 0.17322995 0.45971796 -0.16607068 0.7388994 -0.2384562 -0.07980042 -0.2876485 -0.008151449 0.2736624 0.49899763 -0.04563697 0.26197323 0.19164157
对 -0.44839522 0.7774814 -0.25551295 0.2464065 -0.17925146 -0.5483229 0.018561399 0.82930106 0.0435211 -0.32628354 -0.19537294 -0.5291553 0.13232791 -0.07347936 0.3056533 -0.39941606 0.5187978 -0.0040782844 -0.1257563 -0.43766752 -0.17528558 -0.20429018 0.29147062 0.13931535 -0.012236435 -0.24178508 -0.3369208 0.34585923 -0.22863159 0.015798902 -0.03229495 -0.13260633 0.5212487 -0.15695123 -0.45835477 0.55870175 -0.39584294 -0.27083665 0.13356328 0.10913671 -0.085148625 -0.14714573 -0.5213241 -0.45919555 0.17607974 0.15961197 -0.15184687 0.038328234 0.07912882 -0.041833922 0.24341986 -0.22057919 -0.08665916 -0.18028949 -0.08088809 -0.5378613 0.6664033 -0.5134533 -0.066384055 0.47408167 -0.08007611 -0.05945518 0.25621903 -0.386423 -0.09519957 0.02831508 0.33360872 0.2731768 -1.1663157 0.26065117 0.36352625 -0.23273832 0.5454011 0.17908868 0.4346654 0.5983784 -0.2919056 -0.0387047 -0.375766 0.19345483 -0.13253178 0.20275122 -0.33675322 0.25785312 0.42804363 -0.14098467 0.816939 0.6389439 0.6235393 0.027031854 0.69051707 0.50849193 -0.2001807 -0.45177752 0.5127071 0.044152375 -0.097234584 0.05729395 0.1435108 0.3634806
地 -0.93201 1.1068386 0.21770984 -0.56277055 -0.10154291 -0.50374 -0.23885591 1.0754077 0.014928257 0.07305348 -0.37377873 0.5881451 -0.1289491 -0.47500834 0.6788255 -0.73747647 -0.019628381 -0.703621 -0.7128295 0.31245175 -0.16024375 -0.43580452 1.0633098 0.3212844 -0.15313807 0.34160718 0.12833829 0.8625875 -0.9411798 0.90080136 0.1902187 -0.739766 0.082656346 -0.626724 0.22122125 -0.3075082 0.18456796 0.25823194 -0.8133683 0.5661478 -1.156905 0.19350463 -0.78490543 0.04844521 -0.29280737 -0.61001813 1.3430227 0.7562406 -0.7139764 0.49783212 0.6501071 -0.60964614 -0.59149617 -0.38581908 -0.10167428 0.43765143 0.7356118 -0.046032228 -0.39518553 -0.051212113 0.043399155 -0.12770574 -0.17971674 0.3245757 -0.016945288 0.042506408 0.74244976 0.028468085 -0.21706669 0.5910271 0.7846949 -0.14754759 0.17736544 -0.25839487 -0.3747874 0.47414166 0.097756274 -0.41330907 0.27818605 0.40821624 -0.16269593 -0.045337092 0.11422514 -1.2914728 0.40674588 -0.09888661 0.31998023 0.33569744 0.70306885 0.007203334 0.45932943 -0.36579576 0.39858255 -0.38198358 -0.06742597 0.31398574 0.25322536 0.11668969 -0.32623792 -0.5180617
沙瑞金 -0.26606944 0.8181203 0.18004271 -0.10146773 0.11323905 -0.39908686 0.14111553 1.0923146 0.07146073 -0.40081263 0.18496381 -0.37054867 0.12748124 0.071472906 -0.047268957 -0.086682945 -0.08612129 -0.48179588 -0.34789544 -0.6746636 -0.4083657 -0.08582241 0.7769909 0.6882864 0.16800906 0.36617154 -0.16965245 0.15419674 -0.62814254 0.069522314 0.2560705 -0.6441439 0.30843678 -0.33579358 0.2547356 0.44520935 -0.07516636 -0.3666576 -0.36836794 -0.19251078 -0.8536954 -0.14910495 -1.0376747 0.40370962 0.03822096 0.06132602 0.38770828 0.24137414 -0.14422186 0.21967101 0.17684038 -0.57883406 -0.25544402 0.28609073 0.22358117 -0.36074907 0.81435525 -0.23023365 -0.34926352 -0.16315235 0.061058145 -0.16135216 0.16247088 0.046431795 0.07866234 0.32246736 0.7841349 0.23860186 -0.95004827 0.015758563 0.8292009 -0.06455609 0.17817688 -0.22337712 -0.55532914 0.42873603 -0.08062022 -0.4373415 -0.21493426 -0.2786528 -0.29380125 -0.27641314 -0.30466995 -0.7315603 0.024031349 0.15465288 0.32745954 0.25018895 0.4184599 0.25398123 0.57783926 0.36385533 0.33388254 0.48563766 0.12828584 0.11829995 -0.25212243 0.40688634 -0.44922158 0.026846202
得 -0.38429108 -0.17610727 -0.059495218 0.13225323 0.11752582 -0.24604136 0.54892814 0.85396874 -0.023359776 -0.018065218 -0.31855866 -0.21998739 -0.5219327 0.30667102 0.062283628 0.3409733 0.21218953 -0.16200238 0.0041912445 -0.88638127 0.15889186 -0.31833035 0.81645703 -0.056292314 0.39210922 0.38822353 -0.5132703 0.5177283 -0.46051973 0.23447621 0.6016818 0.07771026 0.59508896 -0.18300997 -0.29283246 0.5852233 -0.13071935 -0.21706043 -0.59339035 -0.6556483 -0.029126458 -0.6615248 -0.8019307 0.087014265 0.343368 -0.007688157 -1.0444028 -0.18815625 0.37942734 0.18859062 0.5605754 0.13717617 -0.048493065 -0.116961755 -0.4987716 -0.52311885 0.21522005 -0.51506174 -0.45072606 1.0829568 0.065768115 -0.08670447 0.24021554 -0.6963679 -0.153615 0.25095218 0.12006647 0.4920205 -0.86719143 0.21267188 0.24942918 0.55257386 0.0014941015 -0.26436588 0.516942 -0.6212358 0.28668615 0.066787094 -0.23010129 -0.14003354 0.15694731 0.49036068 -0.18234734 -0.095267706 -0.14688891 0.11554934 0.6331959 0.025069974 0.16580378 -0.40698785 0.94988227 0.22043414 -0.44247472 -0.08259172 0.54288703 -0.06292952 0.32557067 -0.1526549 0.19958523 0.31436017
、 -0.42525202 0.27932426 0.19192284 0.7593175 -0.94475204 -0.6475364 -1.042648 0.09625699 -0.965112 0.6177134 -0.76935756 -0.4251446 -0.3114549 -0.18733501 1.5068635 -0.10277398 -0.45214194 0.348331 0.3302756 0.36305225 0.41110447 0.20754401 -0.6110134 0.15897886 -0.31464496 0.22183125 -0.19835904 0.11550038 -1.5418359 0.6982387 0.10490021 0.8033092 1.3246698 -0.30125293 0.3563728 0.8423473 0.10246265 0.42028165 -1.2509497 0.5937807 -0.017111337 -0.34543896 -0.2631444 0.07874156 0.7177277 0.23140325 1.6774584 1.1460924 0.13376403 0.22631808 0.98421115 0.25335553 -1.1687489 -0.3437788 0.7483545 0.7823562 0.7469151 0.20589569 -0.46814528 -0.19239508 -0.25040048 0.09676048 -0.22363184 1.6522568 -0.38830075 -1.1557571 0.10549419 0.044387523 0.44568205 1.2186185 -1.1599631 -0.7868894 0.73164475 0.32388753 0.46239573 1.5933192 0.4802504 -1.0246202 0.6520283 0.16703722 0.23069914 0.08203403 0.20203626 0.4416845 0.3532925 0.23042339 0.109407745 1.1077204 1.0410213 -0.07894726 0.33749148 -0.73173594 -0.26273313 0.20763281 -0.36617967 1.1636658 -0.696366 -0.0890884 0.05165666 -0.100351594
给 -0.37218425 -0.22559759 -0.068774775 0.21398103 -0.28542536 -0.27609125 0.26630488 0.35265744 0.03142843 0.085552916 -0.41219217 -0.421155 -0.14588332 0.050526287 0.3591624 -0.07741152 0.15539159 0.24051306 -0.21266493 -0.4563183 0.16181321 -0.24447307 0.24420217 -0.04064041 0.12694795 -0.1600725 -0.27886873 0.29826978 -0.37961635 0.09996684 0.26879337 0.43330508 1.2087841 -0.09395285 -0.38806793 0.73779607 -0.34823912 -0.3030301 -0.36638415 -0.2362752 0.21062134 -0.42189506 -0.13439487 -0.5196706 0.57750297 0.26829308 -0.5069813 -0.04124685 0.33005896 0.22804832 0.326655 0.06900482 -0.030462334 -0.32406214 -0.05192847 -0.44649217 0.30272588 -0.5481854 -0.09627122 0.72608584 -0.29467165 -0.17251386 0.1992315 -0.39833942 -0.4699835 0.11369376 0.049335837 0.38195944 -0.88464075 0.47582132 -0.063458584 -0.031694036 0.522501 0.051890276 0.743713 0.04312947 0.46751022 -0.012692956 -0.023723362 0.33592623 0.2870255 0.61834884 -0.45155144 0.19767183 0.1698569 -0.049605712 0.74111456 0.36093116 0.2066025 -0.32498714 0.63437355 0.04754719 -0.7369907 -0.5266003 0.56673706 -0.12572028 -0.014396834 -0.18186088 0.29624125 0.50749725
她 -0.2810003 0.029385077 0.43165442 -0.19141488 0.021861868 -0.56226623 0.75858635 1.1235731 0.3123112 0.27777064 -0.029333452 -0.15417846 -0.3244617 -0.20746312 0.36273044 0.038333893 0.05554041 -0.45447809 -0.5194514 -0.31150445 0.33767477 0.12562594 0.12752876 0.21248347 0.03983631 0.19932793 0.17898749 0.27605447 -0.60133576 0.49811184 0.35367692 0.41946608 0.36724934 -0.35367 -0.24374743 0.28460252 0.39879164 -0.10499729 -0.43258598 -0.63250756 0.12037671 -0.45038933 -0.27272558 0.1151665 0.32609382 -0.050127927 0.22831456 -0.27324635 0.18726242 0.5734705 0.37051505 0.3151005 0.10367673 -0.55302554 -0.1912113 0.1998093 0.073401116 0.3078374 0.011112629 0.9846919 -0.016380157 -0.09297272 0.00044110682 0.28941697 -0.32983658 0.008736315 0.02410415 -0.02066096 -0.54671 0.23305503 -0.20239276 0.080815844 0.32220173 -0.044323348 0.35582948 -0.34524077 0.2522645 -0.240387 -0.24671401 0.23653264 0.31280315 0.81305206 0.19219694 -0.28812906 0.08515119 0.13161969 0.41755491 0.13175602 0.6980653 0.13452983 0.45942995 -0.37624398 0.1686095 -0.38364753 0.63559735 0.36844176 0.82140994 -0.057572342 -0.19528823 -0.52854973
高小琴 -0.41117716 0.47007093 0.28884494 0.06044636 -0.010160609 -0.4944257 -0.14994766 0.52859443 -0.044117738 -0.132583 -0.122885406 -0.17224684 0.031627156 -0.19240656 0.88028353 -0.18361048 0.11594791 -0.46043473 -0.50260276 -0.18686412 0.02152045 -0.07886193 -0.20457079 0.2174967 0.13837527 -0.1637675 -0.15694766 0.6426199 -0.64679295 0.083800994 0.5279975 0.00994008 0.25099108 -0.4003665 -0.45904812 0.39612645 0.3080016 -0.29499987 0.12391941 -0.48893946 -0.015110335 -0.5017403 -0.38281587 -0.24242294 0.2978068 -0.39144203 0.4389484 -0.091986276 -0.1616132 0.53402185 0.2394887 -0.31324458 -0.29524148 -0.49433744 -0.24548532 0.48821414 0.18724245 -0.01995065 0.034796387 0.2845969 -0.0343592 -0.064063184 0.09905407 0.27645713 -0.42493045 -0.2045573 0.3785604 -0.28457475 -0.5135199 0.6018913 -0.5942132 0.25642166 0.5677026 0.4905169 0.50250703 0.44063774 0.086046696 -0.42171365 0.073351555 0.4720551 0.49031037 0.44648743 -0.18097286 0.34627247 0.36623034 0.023212757 0.26241568 0.7201952 0.5511928 0.13907437 -0.12015663 0.12553267 0.07562344 -0.3975008 0.46033826 0.86976457 0.5089824 -0.16988072 0.058169063 -0.3081229
就是 -0.18153736 0.1135916 0.022311276 0.48658314 -0.16736755 -0.3312332 0.09315361 0.57802373 -0.21947165 -0.19575278 -0.3564908 -0.5496541 -0.16176158 0.2424275 0.22022763 0.08467582 0.345872 0.14133412 0.042254526 -0.76518136 0.1446767 -0.121385194 0.57441384 -0.13896164 0.24299105 0.3357172 -0.5071415 0.4458062 -0.39048868 0.25912738 0.36750323 -0.0130015295 0.6631881 -0.19304264 -0.20709649 0.5688101 -0.26022068 -0.2379342 -0.45755243 -0.17285141 -0.073754534 -0.28595936 -0.6260771 -0.029020386 0.44588134 0.37589943 -0.37135136 0.013916296 0.25827324 -0.25358003 0.53890324 -0.2250078 -0.3440516 -0.1021657 -0.15882981 -0.32592916 0.505193 -0.43922067 -0.074817166 0.5463933 -0.17104705 -0.10146374 0.2645539 -0.24124664 -0.19495995 0.023026688 -0.0775012 0.48008686 -0.87953764 0.39064276 0.14580172 0.036280833 0.346579 0.06542 0.18784983 -0.08106797 0.09243345 -0.23164195 -0.06891738 -0.20220374 -0.17047226 0.20342022 -0.35894176 0.24154964 0.16457936 -0.01670885 0.5509801 0.22957982 0.35225505 -0.18263839 0.70906234 0.2481503 -0.06692521 0.04497001 -0.057090793 0.12538716 0.03557538 0.18629605 0.2855611 0.5970039
我们 -0.1422813 -0.32421458 -0.013840917 0.45237267 -0.039029676 -0.26808053 0.33465743 0.66437775 -0.001441139 -0.11940377 -0.23825502 -0.738656 -0.6389034 0.398145 0.199095 0.39545354 -0.0053393524 0.0032900372 0.12928711 -0.92119396 0.4194369 0.13028394 0.135508 0.049558878 0.43734488 0.18051778 -0.28338867 0.015544332 -0.43960288 -0.03576008 0.60633427 0.296944 0.64174926 -0.13098302 -0.37811205 1.1322354 -0.051947903 -0.5486746 -0.35653627 -0.8130883 0.34173495 -0.74614334 -0.46692502 0.024719799 0.7450716 0.45911857 -0.87773925 -0.11337503 0.5261887 -0.017538372 0.29844552 0.08596559 -0.15097216 -0.12317417 -0.23915961 -0.24566442 0.17121585 -0.33531815 -0.15178779 0.7480331 0.080690354 0.17319079 0.22491553 -0.093109414 -0.29988545 -0.16479394 -0.17655492 0.44918957 -0.9230417 0.32174537 -0.285441 0.54389405 0.42161906 0.061824553 0.6635821 -0.25348538 0.2282981 -0.19500491 -0.22407529 -0.16487621 0.3136771 0.3345811 -0.4205858 0.67553365 0.08029032 0.1309852 0.47335398 0.36100873 0.3694991 -0.3487961 0.6333686 0.4176117 -0.3028263 -0.015764404 0.2723263 0.5065906 0.13511871 -0.09407108 0.21441187 0.50154215
不是 0.01869226 0.15448442 0.0007248649 0.20639388 -0.13412042 -0.8459728 0.38894835 0.4623264 -0.25626636 -0.82800907 -0.32856417 -1.0807116 0.026176522 0.24609978 0.18123634 0.13122575 0.52718145 0.46444166 0.335933 -1.4294702 0.24297701 0.107158236 0.58296084 0.09742822 0.3430967 0.32121584 -0.4841945 0.2668627 -0.1598465 0.020649856 0.48809272 0.14451127 0.7822627 0.19383596 -0.1818655 1.2527412 -0.82146496 -0.2767905 -0.42735425 -0.7013978 0.2083246 -0.59971654 -0.21823604 -0.026050901 0.38904807 0.58992946 -0.97252846 -0.45539954 0.5448517 -0.5462034 0.4045847 -0.039465718 -0.06441697 -0.046131678 -0.6249303 -0.6947312 0.3384874 -0.39272395 -0.30957928 0.38024545 -0.34852985 -0.07621238 0.42496455 -0.72630477 -0.14713582 0.29307616 -0.2098077 0.38578364 -1.3247533 0.03080818 0.020522991 -0.040905174 0.3282054 0.602775 0.39198345 0.010606969 -0.24237542 0.105314925 -0.6323858 -0.17903227 0.056745317 0.33630776 -0.7058338 0.6546663 0.08945855 0.19091973 0.7899906 0.107449315 -0.15560329 -0.3950203 0.9072597 0.554861 -0.5211683 0.1619392 0.22839634 -0.40322188 0.034825824 -0.13936271 -0.09133574 0.75651324
知道 -0.14402807 0.3137826 -0.029457318 0.15885638 0.033031706 -1.0594153 0.21584676 0.39070895 -0.11459524 -0.6294829 -0.35404786 -0.69127184 -0.03481484 0.14999422 0.12381614 -0.25284526 0.78687155 0.6162656 0.53933305 -1.0496925 0.2261958 -0.04573513 0.536879 -0.1579042 0.2721659 0.12428162 -0.33008397 0.3855548 -0.13614756 0.043292604 0.16128503 0.13347651 0.5425589 0.039552588 -0.16345777 0.63050854 -0.93189186 0.111275576 -0.22606775 -0.3411373 0.45807412 -0.4184813 -0.17752063 -0.40737557 0.30566815 0.45426723 -1.0479867 -0.0873346 0.52111757 -0.6768163 0.4397615 -0.16663612 -0.15019031 -0.28732973 -0.6975407 -0.7852303 0.7397105 -0.3107809 -0.3951857 0.7606479 -0.28859574 -0.048788063 0.36051673 -0.770839 -0.07542064 0.32624367 -0.037642647 0.54713637 -1.7322062 0.2413026 0.17388824 -0.29251364 0.5015852 0.33603677 0.693311 0.278237 -0.43185812 0.36373457 -0.74369496 -0.14667667 0.20221987 0.6305382 -0.59109235 0.71886927 0.40855762 0.036014333 0.8746659 0.3287608 -0.14478247 -0.330522 1.3250626 0.28493592 -0.75338537 -0.6327419 0.37195873 -0.3089683 0.15311794 -0.3175251 0.35520533 0.60761434
这个 -0.11525621 0.26794454 -0.10349483 0.52749103 -0.22183569 -0.6054308 0.06343998 0.7336179 -0.16049261 -0.09224396 -0.4133548 -0.5416278 -0.30847055 0.06433261 0.3830686 0.18039799 0.27495298 0.47964102 0.30622068 -0.6933381 -0.058559254 -0.10040771 0.2144629 -0.07462813 0.2389363 0.18384996 -0.31126046 0.11910218 -0.44640023 0.38763186 0.20852524 0.28371587 0.7276302 -0.029242357 0.049590394 1.0244261 -0.45783308 -0.11938789 -0.55417275 -0.006641075 0.06482229 -0.39485243 -0.48504055 -0.15836453 0.49649194 0.46109444 -0.5056339 0.18754594 0.4467637 -0.3210966 0.6315941 0.054560788 -0.46798983 -0.15456499 -0.45774782 -0.31049988 0.5889809 -0.36541817 -0.19876254 0.559357 -0.26918557 0.077515826 0.14205278 -0.20519285 -0.18885967 -0.35320365 0.08182839 0.31850296 -1.0149033 0.1950044 -0.17881021 -0.13549641 0.18488593 0.1200246 0.53165835 0.21191211 0.026644977 -0.056403983 -0.2403811 0.07837975 0.051862612 0.31543744 -0.06936985 0.4463548 0.11382483 0.057519034 0.4586612 0.3797329 0.31050676 -0.23605946 0.8297468 0.22768502 -0.40270707 -0.09375428 0.043053523 0.04081981 -0.058523532 -0.18388222 0.21598542 0.67644346
去 -0.4791346 -0.09181999 0.36489326 0.11879771 0.04071466 -0.089502804 0.4997139 0.34698004 0.31173366 0.3128661 -0.38365677 -0.4111305 -0.69075567 -0.103494756 0.22038208 0.40467107 -0.34783095 -0.19207688 -0.14224118 -0.66859084 0.32482553 -0.16450378 0.43558523 0.33162233 0.62216085 0.27223212 0.36604893 0.2967625 -0.4783796 0.31829986 0.60428995 0.40609738 0.59486866 -0.21205635 -0.13092944 0.95588034 -0.029230459 -0.27478674 -0.36062863 -0.9285893 0.142067 -0.8867648 -0.4507544 0.007482941 0.7013048 0.2168774 -0.6972334 -0.105776094 0.34822232 0.41228437 0.59797454 0.059026416 -0.13829954 -0.50721526 -0.41489708 0.12330543 0.116062485 -0.060654778 -0.45449358 0.57234776 -0.17718263 0.14352728 -0.093355566 0.0014554848 -0.23808347 -0.32449505 0.40473866 0.33069062 -0.62132716 0.4707825 -0.26983365 0.38410583 0.14598857 -0.09860742 0.47812906 -0.2986514 0.60494864 -0.44686943 0.10157222 0.16522735 0.5583798 0.24182646 -0.2929303 -0.19847138 0.13363075 -0.050478216 0.27311108 0.03486013 0.14609534 -0.47470602 0.46805635 0.15089677 -0.6390188 -0.347014 0.38397485 -0.0036586896 0.56810665 -0.12723482 -0.1422172 0.29514542
很 -0.4044773 0.68042827 -0.24541157 -0.047236208 0.038001496 -0.43347102 0.14262544 1.1040554 0.042102598 -0.25043157 -0.09691587 -0.2600514 -0.3051918 0.18356258 0.16948539 -0.14857571 0.115980774 -0.44670346 -0.37511724 -0.46530607 0.004563309 -0.2830839 0.9200517 0.07123537 -0.10444865 0.20773552 -0.3743963 0.19972058 -0.449118 0.17784064 0.20744497 -0.5016064 0.059766456 -0.3392556 -0.3371932 0.0652965 0.017763427 -0.13878417 -0.15034683 -0.010935506 -0.7046544 -0.050728366 -0.7588989 0.112674534 0.014782776 -0.08114241 -0.048748434 0.12589572 -0.09049582 0.017200463 0.38753858 -0.22379619 -0.14698018 -0.019694362 0.12215629 -0.3511716 0.658925 -0.4439611 -0.25131035 0.442379 0.21060771 0.027899912 -0.13257703 -0.1030165 0.15708221 0.22176608 0.080052115 0.48585224 -0.8195421 0.13402262 0.7303267 0.07657523 0.45354766 -0.12249924 -0.13928773 0.18723108 -0.13046806 -0.11077064 -0.36695364 -0.31174183 -0.14636113 -0.06104853 -0.11657214 -0.22271308 0.27378556 0.061317034 0.60559654 0.30140233 0.6934523 -0.02241986 0.7798253 0.18919751 0.451082 -0.0934935 0.38997853 0.44783095 0.12296585 0.36928353 -0.0752016 -0.14705293
来 -0.34125248 -0.2520658 0.024808252 -0.2710256 0.10362738 -0.24718997 0.3574215 0.23568317 0.26145235 0.18439749 -0.25668976 -0.37018234 -0.31905892 0.07347455 0.30923852 0.11915643 -0.097369306 -0.22537614 -0.037939664 -0.51443636 0.45154747 0.042560227 0.17358129 0.19760029 0.32434356 0.04943524 -0.013847651 0.018928396 -0.5433805 -0.007472378 0.4383449 0.30034316 0.627599 -0.30866274 -0.2234039 0.51071775 -0.21326546 -0.30562714 -0.32892263 -0.87139505 0.43669507 -0.89260346 -0.16234264 -0.15461321 0.37814552 0.14104673 -0.522473 -0.25849652 0.37978968 0.42739505 0.17270628 -0.013423735 0.16854358 -0.2300403 -0.07214914 -0.20725873 0.29892808 -0.08071513 -0.54592454 0.77280545 0.19905269 -0.047766775 -0.09113263 -0.21297549 -0.22649872 0.21347095 0.2328254 0.40868402 -0.90015 0.5376517 0.02497906 0.2912289 0.5916395 -0.040437847 0.7696193 0.19112113 0.2845284 -0.1461312 -0.35102513 0.085705005 0.36124682 0.38909847 -0.35626164 0.24105395 0.17938155 0.25578377 0.40436566 0.30850565 0.18126346 -0.2809779 0.6178938 -0.105908036 -0.48427257 -0.46224993 0.743835 0.15539587 0.508438 -0.32747543 -0.07300097 -0.042492095
丁义珍 -0.41611156 -0.034527358 0.11706398 0.17621885 -0.54324627 -0.67243665 -0.24890502 0.70595354 -0.16463883 0.394722 -0.32012925 -0.26809424 -0.06275258 0.21494062 0.754839 -0.020837871 -0.04229004 0.16488886 -0.025580613 -0.07378747 0.3752897 0.22486766 0.047402184 -0.07916269 -0.022751912 0.2725482 -0.17330605 0.048748635 -0.907212 0.5544636 0.05741025 0.370055 0.75245607 -0.11479982 0.06228553 0.328389 -0.005612247 0.044794716 -0.664604 -0.017122302 -0.09076181 -0.2424434 -0.24659482 -0.03586134 0.23906465 0.13978258 0.19584182 0.17528152 0.27182254 0.12097849 0.53555125 0.21480988 -0.3371526 -0.38174862 0.06870495 0.16091268 0.5019784 -0.014651295 -0.067546695 0.32426873 -0.09821245 -0.23923932 -0.15241696 0.22891587 -0.29647577 -0.15276046 -0.17930594 0.094699554 -0.37294063 0.39733705 -0.2695541 -0.32866836 0.29473922 0.15027197 0.48901743 0.2975884 0.111150116 -0.17287645 -0.16476785 0.105355956 0.18150245 0.6115525 0.3412134 0.2965204 0.3289873 0.32501727 0.25634897 0.28689024 0.45506153 0.08751178 0.5130096 -0.6387479 0.1706731 -0.2108568 0.026715994 0.7067798 0.14682695 -0.15847583 0.057781007 -0.0012380691
自己 -0.27904513 0.63747174 0.20905589 0.09769123 -0.18692265 -0.60570616 0.5626708 1.3179535 0.002497416 -0.0033409758 -0.20474283 -0.10075512 -0.31329012 -0.29736197 0.36541298 -0.2777963 0.3306711 -0.124530256 -0.46187052 -0.37924224 -0.36383843 -0.13008374 0.5846072 0.043871988 -0.20115301 0.3498552 -0.29239023 0.34531683 -0.59780425 0.64204675 0.04713763 0.17293523 0.43311244 -0.13278142 -0.07931146 0.21599925 0.13685179 0.06950274 -0.630173 0.2239127 -0.608799 0.22573146 -0.58221334 0.14167328 0.09885473 -0.12869617 0.43014175 0.29832625 -0.012533943 0.09883626 0.549175 0.05413636 -0.24140148 -0.3361404 -0.25477782 -0.16389023 0.39089578 -0.16638926 0.115281515 0.68473893 -0.20263988 -0.1357196 0.05608089 0.1868878 -0.23217908 -0.019599345 -0.0035279442 0.0948463 -0.7308228 -0.015236458 0.16635323 -0.20189594 -0.011937413 -0.33903772 -0.12769231 -0.1434282 0.03145303 -0.059192915 -0.13008739 0.05330753 0.023861649 0.6016179 0.2802733 -0.49226 -0.018803956 -0.04278552 0.4980393 0.2770453 0.59786475 0.21692765 0.725562 -0.20924096 0.20883411 -0.121824086 0.23130432 0.035433747 0.23380454 0.15781464 0.13616598 -0.19500545
现在 -0.20283201 0.053541295 0.09049837 0.14188288 0.05040162 -0.42737225 0.21452746 0.32951504 0.016807297 0.121691026 -0.21603188 -0.34400713 -0.15031126 0.11279099 0.3702885 0.109504886 0.12765998 0.067795776 -0.1614395 -0.62906206 0.10644304 -0.1262734 0.46433514 -0.05451558 0.26205114 0.17271192 -0.34714127 0.2864208 -0.48322308 0.12928487 0.5213155 0.21245646 0.8699728 -0.10678866 -0.09312756 0.6106997 -0.18085665 -0.0382897 -0.3517666 -0.57721746 0.020863064 -0.51017064 -0.48808652 -0.08692146 0.3350768 0.3372727 -0.45116013 -0.057171643 0.30094838 0.09127953 0.47939458 -0.03735796 -0.124026425 -0.31152943 -0.3071171 -0.27811024 0.47149092 -0.33904958 -0.23270357 0.6746492 -0.18624668 -0.13513766 0.0013779018 -0.3792666 -0.24529436 -0.03506236 0.19996017 0.38948882 -1.1123512 0.3421927 -0.14408098 -0.09349908 0.43626797 0.22824936 0.54185826 0.047083996 0.16355227 -0.114569396 -0.28047028 -0.09445989 0.20002536 0.40829656 -0.13183936 0.218685 0.13409491 0.170686 0.5800567 0.06770777 0.21501066 -0.24107733 0.6507876 0.018734857 -0.29981694 -0.39108193 0.5184376 0.13734214 0.38389975 -0.001071564 0.1622584 0.17517549
好 -0.24054751 0.20081256 -0.44073266 0.08552263 0.26186943 -0.17734899 0.39401075 0.40816748 -0.22217074 -0.5694785 -0.14482798 -0.29370046 -0.7562693 0.33425876 -0.20865043 0.21916507 -0.09464945 -0.30514345 0.18156393 -1.1631951 0.03997016 -0.3331007 1.0668952 0.26664898 0.38195622 0.046176605 -0.4084336 0.44578388 -0.23225005 -0.22896457 0.7995608 -0.5532229 0.38587683 -0.18267891 -0.15595926 0.78401875 -0.15812318 -0.34894186 -0.19132386 -0.67647684 -0.32048458 -0.83512425 -0.9600551 0.22463128 0.3802719 0.09805234 -0.9975635 0.06684271 0.0712403 0.01571414 0.3874046 -0.21597698 -0.0936004 0.29851425 -0.30595133 -0.70764583 0.3881356 -0.69957376 -0.53390115 0.49001378 0.2669967 0.14509541 0.1213938 -0.63535595 0.03145613 0.14099161 0.5154936 0.67397314 -1.063919 0.21369483 0.45776263 0.7156061 0.2390149 -0.012907798 0.27744523 -0.032697693 -0.06250347 0.021209676 -0.32768083 -0.38575637 0.22881666 -0.14784004 -0.72614217 -0.050254732 0.056300804 0.15779583 0.6645464 0.14130554 0.117805056 -0.49383524 0.78974724 0.7333465 -0.3855926 0.18377733 0.6043601 0.06566532 0.08925117 -0.032439265 -0.025376564 0.4119724
陆亦可 -0.7599453 0.46228725 0.08076802 -0.08153127 0.0491558 -0.40731126 0.20358308 0.555811 0.10786698 0.008423329 -0.17936863 0.2055341 -0.18679504 -0.3131683 0.46446714 -0.11490393 0.037682824 -0.75563174 -0.35663658 -0.2172259 -0.11274286 -0.21029437 0.5635477 0.3283875 0.068637654 0.19466105 -0.16758375 0.769835 -0.81999445 0.26569295 0.44012916 -0.07294095 0.16023862 -0.13572161 -0.15507084 -0.11328331 0.106147476 -0.08469403 -0.2542062 -0.28324324 -0.35171857 -0.4129282 -0.4904195 0.055359628 -0.022812147 -0.49458444 0.2017312 0.16371812 -0.24434912 0.5397509 0.39703035 -0.24810317 -0.13418047 -0.45292303 -0.31148493 -0.03571952 0.49289286 -0.031146059 -0.33277586 0.4751138 0.12936603 -0.22590207 -0.04052694 -0.1205665 -0.13103884 -0.10121439 0.5999625 0.084069796 -0.63509846 0.37820113 0.11768125 0.23683177 0.19775827 -0.07457187 0.28280166 0.25905326 0.040069126 -0.40137735 -0.07877028 0.08333093 0.21193358 0.32949764 0.06633926 -0.38503253 0.40431836 0.13153677 0.3941743 0.17240068 0.5741012 0.03894955 0.33233657 -0.15436512 0.007437838 -0.09577737 0.507572 0.44371602 0.6006037 -0.14081171 0.059290055 -0.27131385
陈海 -0.68291885 0.31948942 -0.091095105 0.2977764 -0.13953385 -0.41062135 -0.0194635 0.59499615 -0.078875266 0.0013107549 -0.32008126 -0.019357124 0.04567067 0.0598343 0.46738327 -0.024791043 -0.016845047 -0.26001894 -0.40228644 -0.26184776 -0.28491652 -0.48322764 0.5158133 -0.03838447 0.052424192 0.09136965 -0.48831266 0.7140113 -0.5413767 0.14914253 0.30608705 0.0080615 0.5804288 0.049900472 -0.2399869 0.20522061 0.03022913 -0.02338851 -0.22719656 0.07857817 -0.63848764 -0.13808613 -0.5025522 -0.18941118 -0.057624627 -0.2850675 -0.08208183 0.10449271 -0.054321453 0.35747144 0.52921027 -0.21448416 -0.22439112 -0.38730016 -0.04410723 -0.25766477 0.4348628 -0.48852393 -0.11670303 0.30937704 -0.107111685 -0.19595857 0.059340447 -0.28763968 -0.36689097 -0.17557636 0.31584948 0.21939872 -0.3489077 0.30583113 0.25244284 0.050731484 0.11135842 0.1009846 0.26902518 0.07531166 0.10948855 -0.29901496 0.14417599 0.20011494 0.18902993 0.314673 -0.08148983 -0.3360383 0.17729491 0.09659986 0.47888473 0.10513576 0.49906528 -0.11773499 0.4660624 0.020745486 0.059478633 0.06714928 0.31035605 0.2082661 0.060468365 0.05185116 0.16941912 0.13403416
同志 -0.12892316 0.35046068 -0.504066 0.21167171 -0.13208136 -0.3774049 -0.28892544 0.5209448 -0.19013175 -1.0683187 0.12251909 -1.0061103 0.044264063 0.36907214 0.052203268 -0.2986207 0.6689555 -0.23113564 0.3131581 -1.0690985 0.13147013 0.0799989 0.29783788 0.35815942 0.08580631 -0.043029737 -0.80720377 0.009872089 -0.18105784 -0.51655436 0.33762556 -0.50096047 0.35291806 -0.3746219 -0.49352604 0.96060437 -0.7889756 -0.873604 -0.24213763 -0.12095033 0.21481976 -0.29420868 -0.53372157 -0.301161 0.37504733 0.49023932 -0.4542546 0.2083265 0.12289385 -0.4706236 -0.23304768 -0.40086684 -0.13527545 0.40805626 0.36826193 -1.0182678 0.9227243 -0.36047435 -0.2939522 0.39468995 0.08542775 0.14624956 0.59795606 -0.38509893 -0.21224508 0.39864886 0.2280196 0.6778151 -1.4469382 0.35388672 0.6637403 0.15177983 0.70599985 0.12537922 0.10305161 0.76369435 -0.4054628 -0.062095672 -0.6989181 -0.49730578 -0.45160657 -0.007349236 -1.021333 1.0776262 0.40091228 0.04709404 0.90888417 1.1444591 0.3263429 0.00258516 0.7386031 1.0701872 -0.18313488 0.09431418 0.21852075 0.35308245 -0.60611105 0.21981212 0.2972524 0.6184285
欧阳菁 -0.50360936 0.3949155 0.033488728 0.22075348 -0.34082574 -0.44487143 0.12741871 0.9086705 0.05343893 0.12921111 -0.24748304 -0.22528116 -0.21025914 -0.010004428 0.44932628 -0.16020504 0.0988355 -0.19184756 -0.3123364 -0.22931172 -0.01997745 -0.19709063 0.25120735 0.17958304 0.11144995 0.049535517 -0.110338904 0.40372556 -0.4603571 0.44485617 0.18838662 0.27341032 0.49718168 -0.1289337 -0.30581042 0.6256296 -0.010077693 -0.2126799 -0.3296681 -0.27940756 -0.21683863 -0.3878788 -0.4874944 -0.16469689 0.2849188 0.04870019 -0.20011513 0.014681769 0.020783832 0.32113892 0.5944977 -0.0062839524 -0.3012464 -0.52129376 -0.37278834 -0.07592744 0.4814087 -0.27604446 -0.05958783 0.42282107 -0.28546512 -0.083404824 0.050435007 -0.06306381 -0.45322728 -0.1638379 0.34834236 0.0032433846 -0.7266215 0.38689703 0.028268963 -0.00859212 0.102571085 0.10040904 0.45201865 -0.05205979 0.18987928 -0.22464675 -0.16823395 0.3669313 0.2572628 0.46839246 0.14858791 -0.15588924 0.34019315 0.09609318 0.5711476 0.29288447 0.6671246 0.055146415 0.42171144 -0.028929098 0.036490276 -0.38498485 0.2826554 0.3642138 0.44171864 -0.14881726 0.052736145 0.23676305
想 -0.17807205 0.2001465 0.22858685 0.102853045 0.19412747 -0.54802424 0.5766448 0.37751934 -0.059886783 -0.48087096 -0.25839582 -0.58807945 -0.2505988 -0.08678315 0.14730053 0.0835168 0.46798968 0.010598545 0.08056432 -1.2485434 -0.15044463 -0.19351675 0.77853775 0.12047408 0.29818022 0.4249397 -0.46067387 0.6335268 -0.33370066 -0.012151018 0.6565461 0.014936963 0.55065763 0.05078838 -0.28634185 0.6624311 -0.40946338 -0.12339566 -0.39922798 -0.6730753 -0.119985014 -0.47377548 -0.55876905 0.0572039 0.36146906 0.12922423 -0.76222736 -0.15275362 0.27462408 -0.0965859 0.5147146 -0.1486534 -0.04005147 -0.18014711 -0.66209096 -0.58001316 0.4229779 -0.42212194 -0.4583528 0.7160869 -0.33205843 -0.058924697 0.34132546 -0.6133268 -0.2321757 0.333495 0.17185888 0.51197386 -1.3547549 0.16252114 0.17836392 0.12935428 0.18386178 0.01785325 0.17840096 -0.13120176 0.00046620212 0.008795237 -0.31945318 -0.27146554 0.23565832 0.44477624 -0.62467474 0.101168044 -0.07609546 0.019043006 0.5444663 0.18244997 -0.17401229 -0.32705733 0.95425594 0.4976439 -0.6257159 -0.10948108 0.49760017 -0.48513278 0.23517607 -0.03167321 0.29730752 0.29023606
那 -0.3154877 0.21870644 -0.20831712 -0.082966335 0.23399644 -0.64146173 0.5101629 0.49786484 -0.026601562 -0.5812162 -0.27977815 -0.29842493 -0.4587462 0.009719338 0.10004079 0.06493762 0.28123295 -0.09723568 0.089662716 -1.1386749 0.12205006 -0.0737684 0.66258407 0.08459402 0.40329292 0.0410854 -0.32024258 0.47000706 -0.22798818 -0.12589115 0.5846799 -0.19600093 0.26819938 -0.11697587 -0.31288826 0.80643064 -0.3829989 -0.31322265 -0.14927803 -0.7336307 0.05656907 -0.5315909 -0.5330958 -0.14087383 0.37325758 0.01768517 -1.0031327 -0.08314985 0.25227693 -0.012806639 0.300601 -0.17893517 0.013209899 -0.05079478 -0.6868147 -0.5179825 0.30945715 -0.36783612 -0.5012684 0.65116435 0.0997729 0.08832706 0.20983383 -0.7386648 -0.10444011 0.21610782 0.20253935 0.4888282 -1.1987529 0.1613601 0.21074574 0.56904024 0.25762033 0.15149121 0.5300439 -0.06738403 -0.21665584 0.24151437 -0.48605987 -0.040514044 0.422455 0.44282645 -0.71540666 0.36817595 0.17897408 0.13717803 0.6207556 0.3942175 -0.17331302 -0.45152977 0.97447217 0.6494856 -0.65989685 -0.23810029 0.6670322 -0.09542958 0.18531187 -0.3307903 0.070514455 0.3619147
他们 -0.38316423 0.06890616 0.32860723 -0.014329019 0.19346434 -0.37161314 0.441624 0.9883565 0.14921184 0.26515475 -0.32932758 -0.20754597 -0.87529963 -0.078833625 0.3399854 0.16197594 -0.2613773 -0.36855632 -0.20904933 -0.42502815 0.3587976 0.0274504 0.23550391 0.1218679 0.19347903 0.21362515 0.13843256 0.22235964 -0.54163384 0.30037716 0.4986758 0.14929321 0.19572678 -0.511021 -0.19263616 0.43332514 0.57598543 -0.17785393 -0.23775727 -0.7583474 0.027386727 -0.56778723 -0.6099761 0.053801123 0.6170663 -0.089973785 -0.1776098 -0.09556297 0.26402023 0.42075264 0.5885525 0.1240345 -0.1528912 -0.41283453 -0.24373707 0.36404738 0.04210262 -0.08626771 -0.09127734 0.80059063 0.07305626 0.21697226 -0.2436018 0.48493245 -0.27770928 -0.11600475 -0.110535726 0.24359813 -0.37991008 0.5421845 -0.23378049 0.40521824 0.40472123 -0.05892767 0.42175317 -0.3461111 0.4091791 -0.337668 0.019798568 0.04550675 0.5587057 0.4863662 -0.051673137 -0.13691485 0.14751677 0.026411502 0.19670781 0.39646426 0.5014197 -0.2110659 0.5743292 -0.124732524 -0.022480665 -0.4590037 0.54576296 0.7920461 0.63558054 -0.1612257 0.009361924 -0.30265328
啥 -0.16320103 0.40869525 -0.004467633 -0.37580693 0.5448048 -1.3495862 0.8173578 0.46110493 -0.2149432 -1.1035534 -0.41420755 -0.5409742 -0.39135146 -0.0696179 0.20656873 0.04712487 0.5900708 0.15296365 0.33454856 -1.8438926 -0.3201796 -0.21760504 1.009181 0.048962668 0.2762467 0.4617967 -0.45702925 1.014085 -0.020729598 -0.116255626 0.92778873 0.12816212 0.12869595 0.34582618 -0.5201865 0.917366 -0.43487406 0.19420399 -0.2080592 -1.5135887 -0.5397692 -0.4844365 -0.49461067 0.03651151 0.07877891 -0.14510922 -1.4068631 -0.85120267 0.53976905 -0.23866345 0.7804497 0.18426698 0.12008203 -0.3201613 -1.4554344 -0.6774064 0.1003789 -0.61503553 -0.6292353 0.8096958 -0.49257514 -0.03258128 0.053618677 -1.0782075 -0.33643442 0.56694984 -0.31655514 0.18514751 -1.2478482 -0.0109961815 -0.20287167 0.15420622 -0.1300686 0.64703536 0.27317396 -0.56992376 -0.4640942 0.625632 -0.8244746 -0.32402322 1.053503 1.1077386 -0.840069 0.2782261 -0.23783888 0.36045235 0.508554 0.22122122 -0.93173206 -0.7318534 1.3563937 0.5244351 -0.74624807 -0.052224465 1.0645778 -0.74974483 0.78774714 -0.56907815 0.09391666 -0.0967716
季昌明 -0.43522388 0.76185626 0.029288363 -0.22186062 0.10747417 -0.5466346 0.32797378 0.63547736 -0.048124664 -0.5307497 -0.092304245 -0.034521542 -0.11431143 -0.30062705 0.15195678 -0.16135207 -0.033093244 -0.67442614 -0.3337038 -0.58180577 -0.38442093 -0.17597263 0.8553573 0.54996675 -0.020252684 0.2621575 -0.24766463 0.5609424 -0.7437249 0.044313908 0.45215306 -0.37255087 0.052541416 0.06880703 0.035717506 0.22487658 -0.025021028 -0.192265 -0.2884664 -0.25453517 -0.7748916 -0.17705837 -0.5091912 0.32742518 -0.040818032 -0.33499503 0.28687906 0.23643309 -0.3705 0.27470106 0.26865786 -0.42010325 -0.18370828 -0.10671653 -0.27840427 -0.31300852 0.63662684 -0.24636783 -0.4546857 -0.104427874 0.08673437 -0.07457858 0.09177366 -0.049879376 -0.082875 0.111935355 0.58300126 0.17365699 -0.7381557 -0.023851827 0.3576627 0.22492948 0.10723102 0.04610118 -0.21026883 0.52052075 -0.17537542 -0.36003175 -0.26274255 -0.033459973 0.18072104 -0.07220254 -0.29015002 -0.43610343 0.21981803 0.1656026 0.413605 0.17780107 0.24483073 0.06333563 0.38639143 0.21600118 0.0968409 0.4027618 0.45748755 0.2171102 0.09739694 0.06559612 -0.19734572 -0.16058585
这么 -0.20520762 0.17110954 -0.19826119 -0.051261406 0.012517152 -1.0453645 0.3589933 0.88089585 -0.13314955 -0.49025953 -0.3666591 -0.578247 -0.20787464 0.13946572 0.27142188 -0.07880236 0.49165505 0.40680742 0.29161364 -1.0086404 0.16987965 0.054238543 0.40982497 0.050070368 0.31484315 0.09006695 -0.3488342 0.30446193 -0.26008907 0.13625321 0.37018904 0.1536899 0.4654181 -0.01887645 -0.11740747 0.9909544 -0.50143474 -0.101108894 -0.5452322 -0.4708934 0.24151213 -0.5209219 -0.2921118 -0.2508894 0.18844607 0.23480545 -0.8972393 -0.12539327 0.5017687 -0.21057495 0.37186003 0.018740375 -0.12853502 -0.1180158 -0.74651015 -0.53899455 0.3076786 -0.30598944 -0.3498946 0.7336901 -0.09963483 0.044894557 0.32380405 -0.7167035 -0.1959144 0.19860736 -0.052105844 0.26926896 -1.0749801 0.08305018 0.001973199 0.15581219 0.22001447 0.33655974 0.6769355 -0.018647382 -0.30934095 0.37441596 -0.76677006 0.143191 0.23651142 0.5380973 -0.459024 0.5503776 0.022980122 0.33830002 0.6937427 0.2807546 -0.08948025 -0.38104227 1.0561618 0.30720207 -0.53394413 -0.15620165 0.5053138 -0.18548283 0.18034706 -0.45923746 0.023040058 0.32610452
被 -0.55804086 0.283964 0.20035987 0.18735798 -0.2065356 -0.4364135 -0.075365365 0.6671421 0.022075947 0.45543545 -0.45021436 0.12990484 -0.5555545 -0.18463168 0.62613195 0.08931329 -0.12032108 -0.30553812 -0.10453141 -0.09278598 0.21062286 -0.08477086 0.3579834 -0.0685716 0.09638273 0.34765577 -0.047681887 0.3910585 -0.7724617 0.7643104 0.25953048 0.20934156 0.19435033 -0.37777996 0.029156735 0.18526146 0.11766564 0.23537737 -0.6182572 -0.1708234 -0.21140635 -0.3717423 -0.6240798 0.048867736 0.31540245 -0.040784135 0.061231937 0.3040895 0.13544859 0.24690256 0.8277142 0.2148706 -0.45536664 -0.5384649 -0.18532234 0.35512453 0.54321414 0.09677972 -0.39707538 0.6689291 -0.19633473 0.004557299 -0.30899107 0.2884655 -0.048615903 -0.47408178 0.24250655 0.2043019 -0.28660363 0.56941986 -0.12106865 -0.15074468 0.18571001 0.00093876803 0.2532674 0.034328718 0.23966792 -0.3670509 -0.04092854 0.0012966194 0.28388718 0.3465359 0.5415753 -0.15944673 0.24066421 0.12296055 0.1932141 0.23728807 0.5625886 -0.06660483 0.4989063 -0.4117624 0.020448726 -0.46400917 0.2910826 0.5626884 0.5300759 -0.16924146 0.009210885 -0.30870605
道 -0.27635273 0.8040062 -0.25724596 -0.46039778 0.50648534 -1.0684539 0.34819326 0.57328284 0.0024886136 -1.1756103 -0.018105315 -0.49476826 0.25139585 6.151658e-05 0.18517697 -0.26577625 0.44245136 -0.3645395 -0.19981495 -1.2595551 -0.017834654 -0.24568692 0.95356256 0.2963546 0.19167669 -0.08786726 -0.5575278 0.8596488 -0.32662606 -0.6860467 0.8015573 -0.95239085 0.31252438 -0.19514641 -0.29978934 0.48469245 -0.34483325 -0.47902924 0.29324305 -0.7496334 -0.39651498 -0.47442728 -0.6704967 -0.2553019 0.123465054 -0.18016723 -0.33926257 -0.3388627 -0.1271945 0.16956569 -0.021775562 -0.84598196 0.07010081 0.20992987 -0.40821207 -0.61886966 0.58926415 -0.6305423 -0.48355168 0.20808189 0.23715408 -0.11879336 0.39077157 -0.83803874 -0.05686861 0.79770666 0.4258338 0.38784277 -1.5695597 0.25610134 0.53348124 0.4262648 0.85626745 0.60445523 0.26033577 0.6258183 -0.55025274 0.045992363 -0.69540364 0.031881813 0.17632718 0.066422515 -1.3558713 0.29834634 0.37646532 0.17187677 0.7638254 0.48378202 -0.11111268 -0.2249611 0.7163505 0.86859417 -0.20775017 -0.087500446 0.87215227 0.03769758 0.057890397 -0.0143392505 -0.12513155 0.09453589
怎么 -0.19562922 0.25388178 -0.13446501 -0.082203075 0.36152732 -1.118676 0.19987155 0.073482156 -0.048453625 -0.6195886 -0.30131903 -0.71015203 -0.11843102 0.017873134 0.4381648 -0.19787541 0.8505934 0.4886208 0.5840869 -1.4701885 0.2011179 0.17465085 0.41756728 -0.050607365 0.49153325 0.37927538 -0.29583424 0.57309043 -0.31725457 -0.17718223 0.5117135 0.10760411 0.4590067 0.021265717 -0.24699698 0.8779002 -0.8309316 -0.004285962 -0.46592063 -0.7409293 0.28078702 -0.3090685 -0.40929398 -0.42551202 0.24228927 0.20539588 -0.9831705 -0.12357958 0.6760895 -0.5172549 0.32874316 -0.23182583 -0.14611332 -0.15238309 -0.78731376 -0.5163566 0.58291155 -0.23164287 -0.51427823 0.79353404 -0.0530661 0.06813326 0.34008077 -0.91812235 -0.2830052 0.25717634 -0.3837387 0.3678275 -1.6103868 0.5184071 -0.1386154 -0.022301618 0.43024486 0.3016459 0.66912436 0.014310031 -0.43112108 0.37399337 -0.78900087 -0.34942877 0.32009205 0.86652154 -1.1580491 1.0282445 0.23427416 0.22151309 0.36081317 0.73779875 -0.47010136 -0.5459848 1.4437023 0.5954039 -0.9337593 -0.33792883 0.28903335 -0.27459458 0.16508344 -0.36597347 0.41945997 0.58572114
您 0.024035994 0.11012743 -0.21800616 -0.37874612 0.09082882 -1.1045157 0.3429556 0.79343355 -0.08458431 -0.98244023 0.097939566 -1.5557821 0.39544564 0.7296964 -0.1654421 -0.019295303 0.17184171 0.4615081 0.093869 -1.464048 0.493585 0.49689513 0.8369027 0.5537883 0.27195075 0.3478111 -0.36160418 -0.27541068 -0.56920266 -0.6797262 0.5169594 -0.579843 1.3611662 -0.1509559 0.06490191 1.1814898 -0.49000543 -0.51065207 -0.3665279 -0.71962374 -0.12533455 -0.6429963 -0.49649468 0.072742045 0.23677036 0.575914 -0.5010897 -0.55764973 0.71351266 -0.07810585 -0.28871906 -0.46294284 0.35125136 0.76511127 0.3844743 -0.991109 0.53848314 -0.82880455 -0.47443923 -0.04012726 0.41345423 -0.27492124 0.58381385 -0.5953559 -0.14544562 1.0988909 -0.2342078 0.527942 -1.5360469 0.044360377 0.66912454 -0.084889546 0.9873433 0.39961419 0.3300786 0.5238236 -0.37833932 0.15851803 -0.78753066 -0.39814684 -0.21094534 0.15825076 -1.3775221 0.2559692 0.013409288 0.43397138 0.7082397 0.3021151 -0.25598153 -0.25644252 1.216165 0.56532973 0.080279194 0.46715063 0.4217889 0.051933963 -0.9701801 0.241495 -0.5741412 0.58860284
高 0.49138138 0.79793465 0.2755258 -0.14930506 1.0662407 -1.4264766 0.45626348 0.19052245 -0.009712778 -1.018735 0.20943677 -1.0442303 0.4370018 0.27168536 -0.38212878 0.16203646 -0.033598583 0.7755749 0.2169238 -1.8264253 -0.045542587 0.5917943 1.1920648 0.67370325 0.6032666 0.40357468 -0.014381765 0.13920546 -1.1673732 -0.81183463 0.8140284 -1.5406063 1.7476767 -1.0768993 1.3235353 0.81061095 -0.57948124 0.048160348 -0.08523924 -0.31510335 0.032786466 -0.54653114 -1.8448408 -0.031369034 0.65620667 0.752204 0.5555514 0.6487288 0.6942422 -0.21045867 -0.1392603 -1.5497123 -0.3134453 1.4919252 0.7756151 -0.5900481 1.1654677 -0.49511477 -0.78881705 -0.05747694 0.5721516 -0.23537397 0.71571726 -0.12727983 0.5301226 0.9435299 0.9348995 0.81958354 -2.3714447 0.45200524 0.72324145 -0.47838706 1.5927182 -0.06899236 0.037054766 1.5504887 -0.534091 -0.3793862 -0.3468665 -0.9416071 -0.72282267 -0.6305635 -1.6630349 -0.3102471 -0.1712272 0.16440587 0.4184215 0.31127983 -0.36385036 0.12062149 1.5127715 0.9273165 -0.26146525 0.45580706 0.35270503 -0.20233865 -1.5857267 0.62630486 -0.554788 0.34329265
局长 -1.2193112 0.8785943 -0.92114764 0.40901023 0.5438341 -0.21942453 0.17478064 -0.5235496 0.50261205 -0.26464024 -0.5705717 -0.43516916 -0.44588482 -0.06180113 0.5288239 0.18417498 -0.24623957 -1.3523686 -0.5245033 -0.94751877 0.10456213 -0.23532271 1.4163479 0.03120552 -0.032444026 -0.53442234 -0.45979792 1.0825974 -0.6950912 -0.88313097 1.4507025 -0.7852185 0.6417256 0.32257584 -1.2940161 0.42733353 -0.28506517 -0.5055928 1.1967134 -0.45990127 -0.1322343 -1.0693231 -0.45243794 -0.49858135 -0.20590194 -0.345883 -0.8533399 0.06492611 -0.4639098 -0.11694643 0.17269534 -1.164032 0.30002853 -0.5524193 -0.02109469 -0.8700513 0.9118712 -0.97977364 -0.65864694 0.42265633 1.0348814 0.39667904 0.015195958 -0.93403757 0.39631417 -0.6825403 0.37954277 0.95374984 -1.8829231 0.3466078 0.3609138 1.2835084 1.2270457 0.6481465 1.2116455 1.0296547 -0.51434124 -0.69036114 0.0790258 -0.3270883 0.45189452 -0.5201859 -1.5059999 0.78137267 1.3435551 -0.2769999 1.1629568 0.43320772 0.8854833 -0.70469236 0.6803691 1.1143055 -0.38855118 -0.3027774 1.0467587 0.95731074 0.2228343 0.4980253 0.94396716 0.40792766
嘛 -0.14906614 0.2615041 -0.22036706 -0.03443631 0.20000343 -0.7839823 0.5051055 0.8108278 -0.082805626 -0.66051483 -0.31387872 -0.64388186 -0.20274355 0.1376093 0.11120082 0.18571219 0.31565493 -0.16814575 -0.0033192842 -0.980299 0.010764285 -0.1498263 0.85494894 -0.07193585 -0.041427936 0.3832472 -0.675213 0.27489978 -0.45185465 -0.20215386 0.44658333 -0.27871713 0.48565304 0.030021485 -0.34053886 0.4824524 -0.2871417 -0.43299806 -0.28339162 -0.2679577 -0.315578 -0.10980456 -0.487757 0.09335805 0.29671863 -0.0044068005 -0.36558178 -0.27193773 0.29093763 -0.094411075 0.21322747 -0.3914418 0.17925392 0.25318325 -0.09912159 -0.72486395 0.47220987 -0.55464613 -0.3531997 0.50700027 0.3372846 0.036697924 0.19594656 -0.3968623 -0.10902819 0.53373474 -0.22545743 0.7362536 -1.27538 0.027488174 0.55501825 0.34940994 0.6056138 -0.002268721 0.12459235 0.34194168 -0.3652449 -0.03910563 -0.4379818 -0.22655353 0.03680576 0.37886336 -1.0540857 0.23411825 0.20361711 0.10175126 0.634375 0.58549833 0.17873712 -0.26239893 1.3777289 0.45063078 -0.10133686 0.38447982 0.5610015 -0.017781615 -0.17475057 0.16426308 0.035168562 0.34097207
会 -0.24008578 -0.043889992 -0.026879795 0.0010454224 -0.15089795 -0.9423658 -0.039778564 0.7222965 -0.15732476 -0.066755645 -0.30848476 -0.61879313 -0.20018886 0.28046656 0.5286162 -0.037546784 0.4234893 0.46260077 0.37798348 -0.70646733 0.6135186 0.27106476 0.19174325 -0.090416804 0.24738316 0.3763829 -0.2685696 0.028121365 -0.597981 0.2759395 0.3305683 0.20337188 0.5210015 -0.15361193 0.06571343 0.70629716 -0.26358533 0.040531114 -0.68760794 -0.4007513 0.18903449 -0.53374887 -0.2879679 -0.06272364 0.236008 0.37061325 -0.5372323 -0.09338377 0.650887 -0.20647055 0.49169055 0.12651895 -0.20520455 -0.17170775 -0.43034768 -0.14053161 0.4102053 -0.16076049 -0.31850082 0.6894616 -0.004444993 -0.034522828 0.06600749 -0.2706138 -0.0828575 0.08832804 -0.4988083 0.30002797 -0.8592674 0.30691504 -0.2613006 -0.12244465 0.4959476 0.38085172 0.6826271 0.10236761 -0.19767758 0.27019346 -0.5806969 -0.096379906 0.1571931 0.6019075 -0.1365112 0.7195845 0.17271258 0.3257015 0.36984596 0.26167536 0.07321438 -0.29786518 0.93189013 -0.18984532 -0.24438375 -0.3123843 0.18351117 0.48071527 0.2141947 -0.30128166 0.105303764 0.12009846
你们 -0.2861764 -0.17953034 -0.08434557 0.06346143 0.22324291 -0.4668705 0.46190345 0.3347148 -0.09336229 -0.31091794 -0.29480794 -0.5024753 -0.4783172 0.36353606 0.08647291 0.2619223 -0.03829168 0.06430457 0.09903174 -1.1967673 0.36767682 -0.027183034 0.71736413 0.13546045 0.5318849 0.2773359 -0.275533 0.37333885 -0.46448782 -0.13648894 0.8273535 -0.0040897 0.7380183 -0.08244469 -0.15640649 0.9442558 -0.15252863 -0.17099078 -0.36498147 -0.9878469 -0.03381874 -0.76526433 -0.6063244 0.05249945 0.37417522 0.19089639 -1.0860748 -0.14465094 0.46628916 0.0027427033 0.43732038 -0.028164694 -0.024114398 -0.084682986 -0.39503086 -0.4921155 0.1796957 -0.55636954 -0.49342033 0.61880887 0.1153415 0.035801183 0.19949648 -0.60380834 -0.17735383 0.14872168 -0.05396569 0.5130774 -0.987956 0.25043193 -0.039969124 0.50763655 0.26201925 0.1307563 0.566857 -0.3338169 0.12036203 0.08902063 -0.2492712 -0.3611159 0.44128838 0.3312463 -0.63328904 0.22111718 -0.018967371 0.21361332 0.5062874 0.010532933 -0.1293725 -0.5252728 0.843936 0.37940085 -0.5533922 -0.029825328 0.4675518 0.10335645 0.14490236 -0.1301618 0.14765292 0.31080616
能 -0.15365012 -0.06754233 -0.0050929575 -0.0029056761 -0.13882765 -0.6178113 0.29824468 0.41854423 -0.12624739 -0.1767704 -0.3403587 -0.70806986 -0.28799874 0.29172328 0.2490863 0.08747176 0.22851035 0.3984278 0.22322789 -1.041306 0.43432605 0.115527146 0.48259673 0.07002235 0.46077424 0.293495 -0.28470042 0.11724607 -0.44502598 0.16833743 0.55338836 0.22661188 0.78522027 -0.084308654 -0.09847162 1.0850496 -0.5258598 -0.11448608 -0.613733 -0.74540097 0.15478373 -0.72598016 -0.3236002 -0.03121104 0.3236081 0.4761362 -0.8467698 -0.13523662 0.54198194 -0.12798817 0.508886 0.113033235 -0.08978987 -0.07189985 -0.46906337 -0.4365089 0.30642807 -0.30767527 -0.513419 0.57738215 -0.19465241 -0.038830753 0.17285937 -0.5809623 -0.17329176 0.11315247 -0.057642 0.40346047 -1.023656 0.21109685 -0.057585325 0.036619276 0.30072907 0.2753208 0.6118338 0.0051973197 0.055230934 0.22414705 -0.50268894 -0.118112385 0.17236836 0.34394705 -0.33040616 0.4266147 -0.036647126 0.2530555 0.6043958 0.053158853 -0.14596374 -0.4280955 0.8224174 0.20539965 -0.5681938 -0.22017543 0.373421 -0.122592054 0.1827654 -0.19125171 -0.013209042 0.38612485
但 -0.30796355 0.25114572 0.361186 -0.13753863 -0.14012548 -0.6506522 0.50116515 1.1796503 0.022981469 0.07380218 -0.29269412 -0.28048876 -0.4429207 -0.10126069 0.3797364 -0.024911243 0.17257895 -0.23893782 -0.31325465 -0.34582514 0.12701383 -0.0788443 0.5879499 0.071778335 -0.15303767 0.4656936 -0.1784356 0.32356712 -0.7367786 0.6047518 0.28701434 0.13470754 0.36461937 -0.2842186 -0.12006492 0.09261817 0.2772125 -0.024238383 -0.57714605 -0.24374048 -0.2518406 -0.26649097 -0.4686482 0.24068841 0.34666383 -0.075578846 0.21525154 -0.11579208 0.15998667 0.2389695 0.51514214 0.18628421 -0.08699962 -0.29993886 -0.24613994 0.0057069454 0.2647305 -0.075551674 -0.09737368 0.782579 -0.121832505 -0.15379189 -0.13348272 0.30315894 -0.15745454 0.23701914 -0.10028114 0.18711616 -0.60628206 0.18061836 0.064998195 -0.093314596 0.3233946 -0.08139223 0.03829885 -0.0427753 0.17414573 -0.14563814 -0.16108242 -0.02194293 0.15426226 0.5576407 0.2961563 -0.30090657 0.13067265 0.070132375 0.46317673 0.17106001 0.5141218 -0.016446507 0.6665918 -0.44853312 0.194653 -0.25773463 0.45805123 0.29846722 0.56191343 -0.005648372 -0.046535883 -0.3563168
做 -0.3857945 0.18128662 0.090056576 0.22960994 -0.31703153 -0.24888302 0.10744569 0.6133982 0.07554623 0.04624849 -0.1700285 -0.47760084 -0.29813945 0.026665699 0.37555885 -0.019563459 -0.044366624 -0.13543695 -0.15829358 -0.5674912 0.23102319 -0.00045955903 0.18682677 0.33675787 0.35982937 0.060404938 0.05442618 0.17321628 -0.49619317 0.26709613 0.36324447 0.20417209 0.5444727 -0.13802817 -0.25785753 0.95525634 -0.12940882 -0.2899216 -0.363142 -0.47942752 -0.043748975 -0.577959 -0.46954212 -0.050705265 0.42334068 0.2566105 -0.39945412 0.03953206 0.16884302 0.19003761 0.33191738 0.10123395 -0.24201801 -0.39305374 -0.18212819 -0.09676956 0.3131466 -0.09174136 -0.1795762 0.36335292 -0.20468037 0.027544389 0.09927908 -0.07009247 -0.22736618 -0.29306307 0.36274296 0.101807095 -0.6628248 0.30522636 -0.17584407 0.06595663 0.17038888 0.12005053 0.314805 -0.027613457 0.27940562 -0.22689462 -0.19011375 0.101114094 0.3237634 0.20854123 -0.008961519 0.13937347 0.22810997 0.07811708 0.46221754 0.20711587 0.39780086 -0.1856861 0.19476324 0.22919562 -0.23607893 -0.2516335 0.24918751 0.23065442 0.22460602 -0.012333784 -0.052577823 0.25171125
起来 -0.41417155 0.2380621 0.08410458 -0.37472463 0.037244894 -0.28169432 -0.07948832 0.9812054 0.12071733 0.18145686 -0.20111075 -0.008262788 -0.22026642 0.04196652 0.14055233 -0.13913824 -0.11437891 -0.53474003 -0.32565278 0.048873164 0.35928917 -0.059232175 0.62719905 0.12762819 -0.16171846 0.3115117 -0.15830833 0.16008224 -0.6791136 0.22966874 0.15308839 -0.4769051 0.266459 -0.52329636 0.20320517 -0.19168738 0.3300582 -0.25578326 -0.54397935 0.027571151 -0.24138173 -0.21227477 -0.5603254 0.15670532 0.2330187 -0.07872428 0.55273473 0.23357002 -0.09195576 0.4534991 0.18000595 -0.39405453 -0.15282011 0.07842874 0.15783255 0.13211167 0.61052376 -0.28019553 -0.28681055 0.3287394 0.31158257 -0.110738225 -0.04266556 0.3580771 -0.07204889 0.3164015 0.19235632 0.41764566 -0.35228917 0.46468082 0.6825917 0.13158835 0.491803 -0.16738778 0.08614591 0.27360326 0.14284553 -0.4298533 -0.10990045 0.15485983 -0.2881604 -0.009655928 -0.16366473 -0.44059932 0.31767666 0.11281712 0.3671021 0.37009746 0.5808646 0.0070642373 0.59651095 -0.26060647 0.48125628 -0.21021381 0.21153818 0.7263868 -0.045634773 0.047768544 -0.20312063 -0.15684946
没有 -0.29873776 0.18453068 0.36649 -0.0939217 -0.0063751284 -0.9394002 0.41125247 0.46436146 0.10356492 -0.078593135 -0.32552183 -0.48704562 -0.21755274 -0.18621786 0.68117857 0.2382174 0.27086928 -0.057511773 -0.044255227 -0.7480244 0.2412243 0.17053193 0.5447473 0.064960636 0.19972035 0.6668528 -0.04715058 0.3771916 -0.99527925 0.50446075 0.5065892 0.37713292 0.46887445 0.082433656 -0.04918792 0.38388407 -0.2485948 0.14822572 -0.4232584 -0.6427476 -0.06874798 -0.4127886 -0.17683138 0.2545467 0.2355883 -0.09560815 -0.25120413 -0.27826458 0.46302518 -0.039112702 0.40106416 0.04581246 -0.11136832 -0.45522612 -0.54398173 0.015845818 0.280947 0.17863671 -0.40607154 0.53118724 0.08584976 -0.10289729 -0.11723578 -0.12641522 0.097837456 -0.038921773 -0.23999962 0.110155076 -0.9483394 0.047113672 -0.38392314 -0.04423593 0.3156855 0.22773042 0.3130401 0.121281356 -0.038702 -0.11720191 -0.31944335 -0.2891281 0.4744341 0.656894 -0.026337363 0.33134353 0.31519073 0.1822591 0.18288255 0.05320312 0.08604588 -0.20373787 0.796885 -0.40784407 -0.285538 -0.092562534 0.23891947 0.11027497 0.61052597 -0.110744625 -0.02472078 -0.074689
